tree
version=v4
num_class=1
num_tree_per_iteration=1
label_index=0
max_feature_idx=69
objective=binary sigmoid:1
feature_names=enemy_5039_dqgint enemy_5052_dqsbr enemy_15026_dqmtrf enemy_15084_dqhfly enemy_5042_dqkght_2 enemy_15081_dqmage enemy_15030_dqsgpr enemy_15009_dqmgcs enemy_5036_dqger_2 enemy_5043_dqgscr enemy_15077_dqqzts enemy_15014_dqmmka enemy_15013_dqsnsl enemy_5035_dqveng_2 enemy_15047_dqwlpl enemy_15022_dqhvys enemy_15095_dqams enemy_15078_dqcjld enemy_15094_dqgent enemy_15040_dqrdmn enemy_15080_dqgtop enemy_5031_dqrtar_2 enemy_5053_dqllme enemy_15048_dqdivi enemy_5040_dqmage enemy_5038_dqiprr_2 enemy_15018_dqskzc enemy_15083_dqymot enemy_15092_dqudg enemy_15091_dqbus enemy_15046_dqxts enemy_15008_dqspsb enemy_5055_dqkill enemy_15010_dqcadk enemy_15082_dqklr enemy_5028_dqlime_2 enemy_15089_dqbgpa enemy_15021_dqdurg enemy_15079_dqkodo enemy_15015_dqmerr enemy_5037_dqdbox enemy_15023_dqwlfm enemy_5048_dqingd enemy_15028_dqmtrb enemy_15088_dqterm enemy_15086_dqcbld enemy_15085_dqji enemy_15029_dqfrtu enemy_5029_dqslim enemy_15093_dqzfkl enemy_15004_dqdhdt enemy_15052_dqboar enemy_15002_dqwing enemy_15011_dqnhst enemy_15075_dqzklz enemy_15076_dqzmst enemy_15073_dqkght enemy_15074_dqdght enemy_15090_dqacpa enemy_15033_dqclif enemy_5032_dqmon enemy_5033_dqmstr_2 enemy_15072_dqlbgg enemy_15070_dqhlgy enemy_15071_dqyrzf enemy_15068_dqsui enemy_15069_dqdeer g1|g13 g1|g16 g3|s34
feature_infos=[-2:2] [-23:21] [-5:5] [-43:46] [-6:7] [-11:11] [-12:13] [-16:15] [-6:6] [-19:18] [-10:11] [-5:5] [-26:26] [-12:12] [-5:5] [-12:12] [-11:10] [-8:8] [-30:30] [-8:9] [-6:6] [-5:5] [-3:4] [-43:40] [-6:6] [-20:19] [-5:5] [-5:5] [-5:5] [-9:10] [-67:70] [-69:74] [-2:2] [-8:8] [-8:7] [-36:37] [-4:4] [-3:3] [-5:5] [-9:9] [-19:19] [-1:1] [-8:9] [-14:14] [-3:3] [-9:9] [-7:7] [-8:8] [-36:39] [-1:1] [-10:9] [-14:13] [-7:7] [-13:13] [-1:1] [-1:1] [-1:1] [-1:1] [-6:5] [-3:2] [-16:15] [-14:13] [-1:1] [-1:1] [-1:1] [0:1] [0:1] [0:1] [0:1] [0:1]
tree_sizes=3532 3552 3556 3566 3552 3544 3538 3558 3532 3558 3499 3527 3545 3526 3566 3497 3539 3528 3540 3533 3531 3539 3498 3529 3537 3523 3534 3521 3497 3512 3499 3501 3506 3515 3533 3492 3499 3523 3495 3520 3485 3517 3536 3492 3517 3496 3475 3488 3492 3470 3494 3494 3488 3456 3501 3463 3478 3497 3494 3484 3514 3504 3446 3484 3467 3500 3491 3498 3465 3507 3487 3462 3503 3473 3482 3433 3476 3489 3450 3466 3494 3491 3490 3453 3463 3510 3461 3509 3451 3446 3452 3462 3466 3460 3465 3476 3489 3483 3481 3481

Tree=0
num_leaves=31
num_cat=0
split_feature=23 23 5 1 1 5 29 29 39 39 26 4 26 3 13 19 3 50 4 46 37 44 45 27 15 13 51 19 23 7
split_gain=370.308 334.345 312.46 307.087 251.789 246.512 211.86 193.27 182.566 147.174 120.581 113.334 95.0119 78.0894 72.8276 71.7555 62.1822 58.9145 57.0854 50.0809 49.034 48.2837 120.786 48.7061 74.0602 49.5644 50.2323 45.6404 45.5831 43.7524
threshold=-7.4999999999999991 1.0000000180025095e-35 -1.0000000180025095e-35 -1.0000000180025095e-35 1.0000000180025095e-35 1.0000000180025095e-35 1.0000000180025095e-35 -2.4999999999999996 -1.0000000180025095e-35 1.0000000180025095e-35 -2.4999999999999996 -1.0000000180025095e-35 1.5000000000000002 -12.499999999999998 -1.0000000180025095e-35 3.5000000000000004 16.500000000000004 -1.0000000180025095e-35 1.0000000180025095e-35 2.5000000000000004 1.5000000000000002 -1.4999999999999998 -1.4999999999999998 -2.4999999999999996 -2.4999999999999996 4.5000000000000009 1.0000000180025095e-35 -3.4999999999999996 -25.499999999999996 1.0000000180025095e-35
decision_type=2 2 2 2 2 2 2 2 2 2 2 2 2 2 2 2 2 2 2 2 2 2 2 2 2 2 2 2 2 2
left_child=28 2 -2 -4 5 6 7 -5 -9 10 -10 -12 13 -13 -15 16 17 -16 19 20 21 22 -19 24 -23 26 27 -25 -1 -29
right_child=1 -3 3 4 -6 -7 -8 8 9 -11 11 12 -14 14 15 -17 -18 18 -20 -21 -22 23 -24 25 -26 -27 -28 29 -30 -31
leaf_value=-0.012073657390912257 0.11194556338257997 0.11844479538039132 0.10973084793237954 0.10060319920131268 -0.091644896516879112 -0.085368516562808749 -0.079653440792445726 0.095801127167797179 -0.072454149007022198 -0.068693816075129963 0.085328221346935726 0.068733481969620924 0.075918629817983002 -0.054773956640336269 0.090453176469652369 0.072095340137203187 -0.052101835586878753 0.019383381633141416 -0.052639485698238425 0.063801167735250866 0.068753005686967322 -0.0039088346959126833 -0.1902779142063119 -0.057779285504947125 -0.1902779142063119 0.065363354940037838 0.089583739363847129 0.0025502583675235755 -0.11419726080120583 0.062037147284690126
leaf_weight=52.748459368944168 293.49142795801163 301.24120160937309 276.99190986156464 249.24272033572197 273.74200478196144 280.24181494116783 249.49271303415298 240.49297589063644 169.74504223465919 246.74279335141182 208.99389588832855 195.74428287148476 209.24388858675957 199.99415874481201 82.997575879096985 162.74524667859077 185.99456763267517 72.497882544994354 162.74524667859077 153.49551683664322 117.74656096100807 65.998072385787964 44.248707622289658 119.24651715159416 31.499080002307892 141.99585270881653 68.248006671667099 2528.6761446297169 254.99255239963531 129.99620318412781
leaf_count=211 1174 1205 1108 997 1095 1121 998 962 679 987 836 783 837 800 332 651 744 290 651 614 471 264 177 477 126 568 273 10115 1020 520
internal_value=0.0108088 0.0152414 0.0109007 0.00658327 0.00224895 0.00631707 0.0105726 0.0144616 0.0105855 0.0067177 0.0104009 0.0132817 0.0100596 0.00697247 0.00413999 0.00703627 0.00432513 0.00714686 0.00524546 0.00795745 0.00537572 0.00304545 -0.0600814 0.00543387 -0.0641204 0.00770327 0.0048266 0.00274428 -0.0966927 0.00545888
internal_weight=7771.27 7463.53 7162.29 6868.8 6591.81 6318.07 6037.82 5788.33 5539.09 5298.6 5051.85 4882.11 4673.11 4463.87 4268.13 4068.13 3905.39 3719.39 3636.39 3473.65 3320.15 3202.41 116.747 3085.66 97.4972 2988.16 2846.17 2777.92 307.741 2658.67
internal_count=31086 29855 28650 27476 26368 25273 24152 23154 22157 21195 20208 19529 18693 17856 17073 16273 15622 14878 14546 13895 13281 12810 467 12343 390 11953 11385 11112 1231 10635
is_linear=0
shrinkage=1


Tree=1
num_leaves=31
num_cat=0
split_feature=23 23 5 1 1 5 29 29 39 39 26 4 26 3 13 19 7 50 37 3 4 13 44 45 46 23 44 45 17 46
split_gain=300.802 271.862 253.918 249.479 204.432 200.211 171.767 157.102 148.339 119.306 97.6918 92.1044 77.3168 63.5321 59.8636 59.2628 50.2282 49.7147 48.9113 43.6221 42.5255 42.4896 40.4286 125.662 42.8772 39.9388 39.6671 124.777 42.6085 43.3481
threshold=-7.4999999999999991 1.0000000180025095e-35 -1.0000000180025095e-35 -1.0000000180025095e-35 1.0000000180025095e-35 3.5000000000000004 1.0000000180025095e-35 -2.4999999999999996 -1.0000000180025095e-35 3.5000000000000004 -2.4999999999999996 -1.0000000180025095e-35 2.5000000000000004 -12.499999999999998 -1.0000000180025095e-35 3.5000000000000004 -1.0000000180025095e-35 -1.0000000180025095e-35 -1.4999999999999998 16.500000000000004 1.0000000180025095e-35 1.0000000180025095e-35 1.5000000000000002 1.5000000000000002 -3.4999999999999996 23.500000000000004 -1.4999999999999998 -1.4999999999999998 1.0000000180025095e-35 2.5000000000000004
decision_type=2 2 2 2 2 2 2 2 2 2 2 2 2 2 2 2 2 2 2 2 2 2 2 2 2 2 2 2 2 2
left_child=21 2 -2 -4 5 6 7 -5 -9 10 -10 -12 13 -13 -15 16 -16 -18 -19 20 22 -1 24 -24 -20 -3 27 -26 29 -28
right_child=1 25 3 4 -6 -7 -8 8 9 -11 11 12 -14 14 15 -17 17 18 19 -21 -22 -23 23 -25 26 -27 28 -29 -30 -31
leaf_value=-0.10615837622823909 0.091317268548198841 0.11710440531948324 0.089306203201637804 0.081025440415980393 -0.092405529581956081 -0.087373937491071751 -0.081546835910098592 0.07667355037082102 -0.07503581570821681 -0.071833062980532394 0.06719259018229766 0.052425496105409558 0.069485489748639398 -0.058743469891835202 -0.055932040880077576 0.055898420388076887 0.071752789678291518 -0.062949621920598123 -0.063369125283993286 -0.052520961180076736 -0.051849539798009929 0.054482719830565601 0.18613279746241018 -0.034546751344908706 0.022726461361363522 0.030304376215169477 0.00050165768836598409 -0.18546946246649237 0.088523458008677489 0.06008245044847535
leaf_weight=289.46017344295979 292.58238914608955 231.437336191535 276.16783845424652 248.62039817869663 273.1760086119175 275.74729964137077 249.10467466711998 239.94902312755585 169.52741657197475 245.21060433983803 208.62003773450851 197.26646219193935 151.78119421005249 202.09683157503605 187.6807314157486 164.03660622239113 87.080567568540573 138.69407193362713 101.94367681443691 165.63680060207844 150.89404104650021 17.458349198102951 46.492692202329636 57.986295774579048 79.482905074954033 68.758562743663788 2711.8772635608912 45.13228252530098 59.736848726868629 127.8695103675127
leaf_count=1161 1174 929 1108 997 1095 1105 998 962 679 982 836 790 608 809 751 657 349 555 408 663 604 70 186 232 318 276 10851 182 239 512
internal_value=7.24457e-07 0.00399527 8.34521e-05 -0.00380669 -0.00771136 -0.00404617 -0.000239894 0.00325964 -0.000230918 -0.00371327 -0.000408119 0.0021821 -0.000718538 -0.00307395 -0.00560436 -0.00300062 -0.0054401 -0.00292836 -0.0046928 -0.00241489 3.95318e-05 -0.0970207 0.00246321 0.0636547 0.000418063 0.0972232 0.00256836 -0.0526765 0.00494269 0.00318449
internal_weight=7761.51 7454.59 7154.39 6861.81 6585.64 6312.47 6036.72 5787.62 5539 5299.05 5053.84 4884.31 4675.69 4523.91 4326.64 4124.54 3960.51 3772.83 3685.75 3547.05 3381.42 306.919 3230.52 104.479 3126.04 300.196 3024.1 124.615 2899.48 2839.75
internal_count=31086 29855 28650 27476 26368 25273 24168 23170 22173 21211 20229 19550 18714 18106 17316 16507 15850 15099 14750 14195 13532 1231 12928 418 12510 1205 12102 500 11602 11363
is_linear=0
shrinkage=0.1


Tree=2
num_leaves=31
num_cat=0
split_feature=23 23 5 1 1 5 39 29 29 39 26 4 26 3 13 19 37 44 45 13 46 51 7 50 48 23 7 44 45 8
split_gain=245.621 222.336 207.264 203.5 166.846 163.326 141.712 154.056 129.601 97.1516 79.582 74.8284 64.7242 51.4522 47.9496 47.2198 47.7858 43.7168 107.717 45.5876 47.7093 43.0528 47.4113 37.9844 37.4546 37.2196 36.6868 35.6244 113.569 34.3221
threshold=-7.4999999999999991 1.0000000180025095e-35 -1.0000000180025095e-35 -1.0000000180025095e-35 1.0000000180025095e-35 1.0000000180025095e-35 -1.0000000180025095e-35 1.0000000180025095e-35 -2.4999999999999996 1.0000000180025095e-35 -2.4999999999999996 -1.0000000180025095e-35 1.5000000000000002 -12.499999999999998 -1.0000000180025095e-35 3.5000000000000004 1.5000000000000002 -1.4999999999999998 -1.4999999999999998 4.5000000000000009 2.5000000000000004 4.5000000000000009 -1.0000000180025095e-35 -1.0000000180025095e-35 -1.0000000180025095e-35 -25.499999999999996 1.0000000180025095e-35 1.5000000000000002 1.5000000000000002 -2.4999999999999996
decision_type=2 2 2 2 2 2 2 2 2 2 2 2 2 2 2 2 2 2 2 2 2 2 2 2 2 2 2 2 2 2
left_child=25 2 -2 -4 5 6 -5 8 -8 10 -10 -12 13 -13 -15 16 17 18 -16 20 21 22 -19 -24 -22 -1 27 -25 -29 -17
right_child=1 -3 3 4 -6 -7 7 -9 9 -11 11 12 -14 14 15 29 -18 19 -20 -21 24 -23 23 26 -26 -27 -28 28 -30 -31
leaf_value=-0.011473604524854672 0.082807520785376232 0.088283528048617541 0.080958281970312573 0.072562660021859668 -0.083721625630166871 -0.078561463776559481 0.071591146183099419 -0.082554041560510508 -0.067824872381171797 -0.064743026978087398 0.060727307288284363 0.047075067470377888 0.05387168022757241 -0.053331874608592102 0.0089932314132948801 -0.13766855709473594 0.053492212723380388 -0.066632227141269193 -0.17389443048628603 0.046538515952051031 -0.17029291282122672 0.064533936510571294 0.061860882273745844 -0.015662925966827331 0.059434152534094134 -0.10396755772719674 0.037764909526628088 0.16841216153970609 -0.042058804909922393 0.061083197568322249
leaf_weight=52.580509439110756 290.48920145630836 297.67777921259403 274.27461397647858 256.34548015892506 271.44473388791084 278.19167150557041 241.50277999043465 235.96376553177834 168.8301827609539 245.53999464213848 207.7892307639122 195.03337544202805 208.35903982818127 199.35706853866577 81.447605162858963 9.2122186720371229 133.52527119219303 151.10597190260887 53.265376642346382 162.03293411433697 7.4746655672788611 75.330755293369293 73.302503690123558 2769.1046987622976 140.49930953979492 252.07157085835934 146.82772792875767 43.135217890143394 63.201034784317017 152.87303417921066
leaf_count=211 1174 1205 1108 1033 1095 1121 974 950 679 987 836 783 837 800 326 37 535 605 219 649 30 302 295 11082 564 1020 588 174 253 614
internal_value=1.31869e-06 0.00360827 7.57783e-05 -0.00343522 -0.00695798 -0.00365011 -0.000188977 -0.0034241 -4.68799e-05 -0.00331905 -0.000327597 0.00201098 -0.000604327 -0.00315117 -0.00544973 -0.00309994 -0.0052978 -0.00738182 -0.0633204 -0.00530704 -0.007728 -0.0102027 -0.0119368 -0.00926693 0.0478299 -0.0880038 -0.0109921 -0.0134817 0.0433186 0.049787
internal_weight=7737.79 7433.14 7135.46 6844.97 6570.7 6299.25 6021.06 5764.71 5528.75 5287.25 5041.71 4872.88 4665.09 4456.73 4261.7 4062.34 3900.25 3766.73 134.713 3632.01 3469.98 3322.01 3246.68 3095.57 147.974 304.652 3022.27 2875.44 106.336 162.085
internal_count=31086 29855 28650 27476 26368 25273 24152 23119 22169 21195 20208 19529 18693 17856 17073 16273 15622 15087 545 14542 13893 13299 12997 12392 594 1231 12097 11509 427 651
is_linear=0
shrinkage=0.1


Tree=3
num_leaves=31
num_cat=0
split_feature=23 23 5 1 1 5 39 29 29 39 3 4 26 4 16 50 3 26 25 27 15 50 37 16 33 13 19 23 39 29
split_gain=201.491 182.444 169.735 166.491 136.657 133.646 116.436 125.84 105.977 79.1213 66.5663 63.158 56.5422 50.3322 53.4491 50.9107 54.0022 48.5099 37.0088 37.8349 76.7552 37.4233 36.7363 38.9783 36.4491 34.8617 34.5888 33.7096 31.9951 31.7777
threshold=-8.4999999999999982 1.0000000180025095e-35 -1.0000000180025095e-35 -1.0000000180025095e-35 1.0000000180025095e-35 3.5000000000000004 -1.0000000180025095e-35 1.0000000180025095e-35 -2.4999999999999996 3.5000000000000004 16.500000000000004 -1.0000000180025095e-35 2.5000000000000004 1.0000000180025095e-35 -1.0000000180025095e-35 1.0000000180025095e-35 -1.0000000180025095e-35 -2.4999999999999996 8.5000000000000018 -2.4999999999999996 -2.4999999999999996 -1.0000000180025095e-35 -1.4999999999999998 1.0000000180025095e-35 1.0000000180025095e-35 1.0000000180025095e-35 3.5000000000000004 23.500000000000004 4.5000000000000009 4.5000000000000009
decision_type=2 2 2 2 2 2 2 2 2 2 2 2 2 2 2 2 2 2 2 2 2 2 2 2 2 2 2 2 2 2
left_child=25 2 -2 29 5 6 -5 8 28 10 11 -10 13 14 -13 16 -16 -18 19 20 -19 -21 -23 24 -24 26 -1 -3 -8 -4
right_child=1 27 3 4 -6 -7 7 -9 9 -11 -12 12 -14 -15 15 -17 17 18 -20 21 -22 22 23 -25 -26 -27 -28 -29 -30 -31
leaf_value=-0.096850305600145722 0.075321351941528406 0.098972140160421412 0.079783237000294299 0.065953160622485782 -0.076099499369133669 -0.071870523026990304 0.072014267117290448 -0.074952221014874157 0.056592475125512201 -0.058774658997495094 -0.054491523486208886 0.053082786647550145 0.060601549081851905 -0.052290675006092482 0.052667848292832858 -0.078830356179007521 -0.06187160550464043 -0.0030188162059821026 -0.046433312612018135 0.071177177723968879 -0.18317968068876234 -0.052451245469016285 0.0083673347523804016 -0.045151540293360548 -0.042859896158746247 0.057054423052560088 0.061635521418997835 0.018696247652524322 -0.12430186443653729 -0.1157720547218028
leaf_weight=268.54284039139748 287.57622915506363 226.26598143577576 263.06041984260082 254.80382731556892 268.90094920992851 271.93395599722862 231.02679008245468 234.00681167840958 203.67464581131935 242.93197751045227 217.25197041034698 181.19631095230579 147.5305078625679 192.86485436558723 180.45709489285946 85.374799728393555 136.41284358501434 81.266223192214966 172.04441669583321 78.583114370703697 33.352928280830383 122.21656249463558 2901.2978767454624 157.17881120741367 145.87830214202404 17.413844913244247 14.514952033758162 68.039819598197937 8.6112222075462324 8.5807219892740232
leaf_count=1099 1174 929 1073 1034 1095 1105 939 950 824 982 873 727 596 775 727 343 552 326 690 318 135 490 11640 630 585 70 59 276 35 35
internal_value=1.35332e-06 0.00325988 6.53613e-05 -0.00310772 -0.00628977 -0.00330057 -0.000196936 -0.00312668 -8.13475e-05 -0.00303358 -0.000344988 0.0020959 -0.000308866 -0.00232003 -6.57655e-05 -0.00241803 -0.000790644 -0.0033106 -0.00114677 0.00106681 -0.0554437 0.00296898 0.00135771 0.00341003 0.00591492 -0.0802747 -0.0887233 0.0804134 0.0649598 0.0736059
internal_weight=7702.79 7402.32 7108.01 6820.44 6548.8 6279.9 6007.96 5753.16 5519.15 5279.51 5036.58 4819.33 4615.65 4468.12 4275.26 4094.06 4008.69 3828.23 3691.82 3519.77 114.619 3405.15 3326.57 3204.35 3047.18 300.472 283.058 294.306 239.638 271.641
internal_count=31086 29858 28653 27479 26371 25276 24171 23137 22187 21213 20231 19358 18534 17938 17163 16436 16093 15366 14814 14124 461 13663 13345 12855 12225 1228 1158 1205 974 1108
is_linear=0
shrinkage=0.1


Tree=4
num_leaves=31
num_cat=0
split_feature=23 23 5 1 1 5 39 29 29 39 26 4 13 26 3 46 19 17 7 37 47 8 19 27 15 44 45 48 13 7
split_gain=165.832 150.266 139.274 136.516 112.253 109.619 94.4841 103.272 86.6295 64.6982 54.4428 50.2278 44.0612 43.5794 38.969 45.33 41.8045 41.5319 38.8842 42.8556 41.4739 41.0714 42.0127 38.7792 53.0506 39.4643 83.1007 37.2182 36.5103 39.2008
threshold=-7.4999999999999991 1.0000000180025095e-35 -1.0000000180025095e-35 -1.0000000180025095e-35 1.0000000180025095e-35 1.0000000180025095e-35 -1.0000000180025095e-35 1.0000000180025095e-35 -2.4999999999999996 3.5000000000000004 -2.4999999999999996 -1.0000000180025095e-35 -1.0000000180025095e-35 1.5000000000000002 16.500000000000004 -3.4999999999999996 -3.4999999999999996 1.0000000180025095e-35 1.0000000180025095e-35 -1.4999999999999998 -3.4999999999999996 -2.4999999999999996 3.5000000000000004 -2.4999999999999996 -2.4999999999999996 -1.4999999999999998 -1.4999999999999998 16.500000000000004 1.0000000180025095e-35 -1.0000000180025095e-35
decision_type=2 2 2 2 2 2 2 2 2 2 2 2 2 2 2 2 2 2 2 2 2 2 2 2 2 2 2 2 2 2
left_child=-1 2 -2 -4 5 6 -5 8 -8 10 -10 -12 -13 14 15 -14 27 18 19 -18 -21 -22 23 24 -23 26 -25 -17 29 -27
right_child=1 -3 3 4 -6 -7 7 -9 9 -11 11 12 13 -15 -16 16 17 -19 -20 20 21 22 -24 25 -26 28 -28 -29 -30 -31
leaf_value=-0.073264555093774664 0.068657567193660771 0.073499884593341766 0.06708401834948706 0.059731396508086378 -0.069327323972112553 -0.064931004211085552 0.059061574922889597 -0.068204715646805344 -0.05646348671884184 -0.053280954672211889 0.050062319164818285 -0.044874935079824922 -0.057045283162547894 0.047804944074894599 -0.044966580970346087 -0.058269882466886774 -0.054207967067344466 0.078277801001847586 0.051608740317571837 -0.051836733340848207 -0.046299917507948145 -0.009256187726083125 0.063063260524696463 0.017777665991004461 -0.17186649685770039 -0.043139317162541845 -0.16387854939905586 0.14867645885525307 0.062583298443240051 0.010929083764957735
leaf_weight=296.96282728016376 284.12173122167587 290.05618959665298 268.44455103576183 252.38107684254646 265.81428922712803 273.1337652951479 237.36376523971558 231.5696969628334 166.68136118352413 241.27020227909088 205.3319299519062 213.27238048613071 127.6789295822382 195.61570733785629 188.09720332920551 151.69754041731358 131.08915166556835 77.088375195860863 164.68810507655144 127.73045904934406 142.25408470630646 70.538022384047508 135.6950690895319 66.153461903333664 28.037531942129135 141.65538245439529 40.661540254950523 9.2185017168521863 128.68944801390171 2511.9065050035715
leaf_count=1231 1174 1205 1108 1033 1095 1121 974 950 679 982 836 860 513 793 758 609 527 310 662 513 571 283 548 265 116 569 173 37 517 10074
internal_value=1.56907e-06 0.00295454 6.35472e-05 -0.00280512 -0.00568029 -0.00297747 -0.00015078 -0.00278649 -3.33585e-05 -0.00269753 -0.000268229 0.00166023 -0.000476272 0.00165711 -0.00047051 0.00159362 0.0035001 0.00563277 0.00411476 0.00189547 0.00406283 0.00624929 0.00864267 0.00617096 -0.0555069 0.00827542 -0.0513739 -0.0464144 0.0105654 0.00804274
internal_weight=7664.9 7367.94 7077.88 6793.76 6525.31 6259.5 5986.37 5733.98 5502.41 5265.05 5023.78 4857.1 4651.77 4438.5 4242.88 4054.78 3927.1 3766.19 3689.1 3524.41 3393.32 3265.59 3123.34 2987.64 98.5756 2889.07 106.815 160.916 2782.25 2653.56
internal_count=31086 29855 28650 27476 26368 25273 24152 23119 22169 21195 20213 19534 18698 17838 17045 16287 15774 15128 14818 14156 13629 13116 12545 11997 399 11598 438 646 11160 10643
is_linear=0
shrinkage=0.1


Tree=5
num_leaves=31
num_cat=0
split_feature=1 23 5 23 29 1 5 39 29 39 26 50 26 44 45 27 15 13 46 3 17 51 29 42 23 4 12 27 15 44
split_gain=137.216 137.661 118.318 110.691 93.4458 93.6149 91.3603 77.9326 78.1171 52.8257 45.9665 43.8209 44.4279 39.8587 128.388 38.7126 91.0778 36.9959 39.285 41.31 40.6343 35.5905 34.8648 34.6038 32.6696 28.8769 31.9514 30.2527 56.1401 31.0406
threshold=-1.0000000180025095e-35 -8.4999999999999982 -1.0000000180025095e-35 1.0000000180025095e-35 -2.4999999999999996 1.0000000180025095e-35 3.5000000000000004 -1.0000000180025095e-35 1.0000000180025095e-35 1.0000000180025095e-35 -1.4999999999999998 1.0000000180025095e-35 1.5000000000000002 1.5000000000000002 1.5000000000000002 2.5000000000000004 2.5000000000000004 -1.0000000180025095e-35 -2.4999999999999996 16.500000000000004 1.0000000180025095e-35 -1.0000000180025095e-35 4.5000000000000009 -3.4999999999999996 -27.499999999999996 1.0000000180025095e-35 -14.499999999999998 -2.4999999999999996 -2.4999999999999996 -1.4999999999999998
decision_type=2 2 2 2 2 2 2 2 2 2 2 2 2 2 2 2 2 2 2 2 2 2 2 2 2 2 2 2 2 2
left_child=22 24 -3 4 -4 6 7 -6 9 10 -9 12 13 15 -15 17 -17 -12 -19 20 21 -20 -1 -23 -2 26 -25 28 -28 -29
right_child=1 2 3 -5 5 -7 -8 8 -10 -11 11 -13 -14 14 -16 16 -18 18 19 -21 -22 23 -24 25 -26 -27 27 29 -30 -31
leaf_value=0.073773145556400799 0.01922143490569592 0.062952534976498165 0.05312371354013859 0.061443354370738383 0.05272030990003828 -0.067514356690664343 -0.063726283115185647 -0.044756877096545779 -0.062159176600225796 -0.04823840077133898 -0.045567938413239265 -0.06364145561213537 0.048057990667434623 0.16366717590806887 -0.028269921337242487 0.18626739758165975 0.00025791320053056434 -0.047973851868551687 -0.067517265281342123 -0.045135502114779763 0.075417622376885374 -0.047182464999679777 -0.1202689604713799 -0.047021520260020017 -0.083453487227881318 -0.037688421176078395 0.00056793093005053563 -0.039408425807086492 -0.1634137236051193 0.013445316391957
leaf_weight=281.11158311367035 35.370347663760185 287.17408886551857 264.0529200732708 259.62633280456066 244.66152283549309 250.40878623723984 254.54386350512505 222.04203474521637 228.82869318127632 240.66457901895046 188.69630008935928 100.2311642318964 210.70425151288509 60.481935143470764 82.234710589051247 36.821247428655624 92.32973301410675 165.47247605025768 71.121962577104568 178.92795476317406 78.126165613532066 127.64967203140259 9.5750740468502027 102.93958669900894 250.20487135648727 145.79176305234432 79.598455026745796 115.50086995959282 28.300606474280357 2927.3647348433733
leaf_count=1177 144 1203 1095 1095 1011 1045 1057 907 950 987 764 405 859 249 331 148 372 666 286 724 316 513 39 414 1057 588 320 479 121 11764
internal_value=-5.23946e-07 -0.00267275 8.65531e-05 -0.00258522 -0.00514367 -0.00761191 -0.00510481 -0.00249998 -0.00496363 -0.00247306 -0.000276536 0.00178438 0.00318199 0.00107202 0.0530712 -0.000638459 0.0532897 -0.00229302 -0.000262126 0.00178569 0.00406931 0.00252019 0.0673815 0.00393244 -0.0707365 0.00585178 0.00780273 0.0095939 -0.0424425 0.0114391
internal_weight=7620.56 7329.87 7044.3 6757.12 6497.5 6233.44 5983.03 5728.49 5483.83 5255 5014.34 4792.29 4692.06 4481.36 142.717 4338.64 129.151 4209.49 4020.79 3855.32 3676.39 3598.27 290.687 3527.15 285.575 3399.5 3253.7 3150.76 107.899 3042.87
internal_count=31086 29870 28669 27466 26371 25276 24231 23174 22163 21213 20226 19319 18914 18055 580 17475 520 16955 16191 15525 14801 14485 1216 14199 1201 13686 13098 12684 441 12243
is_linear=0
shrinkage=0.1


Tree=6
num_leaves=31
num_cat=0
split_feature=1 23 5 23 1 5 29 39 29 3 39 4 53 16 26 37 8 13 19 14 14 46 58 26 23 48 21 39 0 29
split_gain=113.04 113.815 97.3203 91.0068 76.415 74.2897 64.2351 63.1686 64.3444 49.1886 52.4253 43.4919 44.1071 38.7265 41.2695 36.8915 33.1284 34.7926 34.5972 30.8022 30.8003 36.2374 35.583 35.0691 29.1563 28.6232 28.5897 29.6154 28.5607 28.5092
threshold=-1.0000000180025095e-35 -7.4999999999999991 -1.0000000180025095e-35 1.0000000180025095e-35 1.0000000180025095e-35 1.0000000180025095e-35 -2.4999999999999996 -1.0000000180025095e-35 1.0000000180025095e-35 -12.499999999999998 3.5000000000000004 -1.0000000180025095e-35 -1.0000000180025095e-35 -3.4999999999999996 -2.4999999999999996 1.5000000000000002 2.5000000000000004 -1.0000000180025095e-35 3.5000000000000004 -1.0000000180025095e-35 -1.0000000180025095e-35 2.5000000000000004 3.5000000000000004 1.5000000000000002 23.500000000000004 -20.499999999999996 2.5000000000000004 4.5000000000000009 1.5000000000000002 4.5000000000000009
decision_type=2 2 2 2 2 2 2 2 2 2 2 2 2 2 2 2 2 2 2 2 2 2 2 2 2 2 2 2 2 2
left_child=29 -2 -3 4 5 6 26 -8 9 -9 11 -11 -13 -14 -15 16 17 -16 20 -17 -19 22 23 28 -5 -6 27 -4 -22 -1
right_child=1 2 3 24 25 -7 7 8 -10 10 -12 12 13 14 15 19 -18 18 -20 -21 21 -23 -24 -25 -26 -27 -28 -29 -30 -31
leaf_value=0.067540069696682969 -0.064788685835215964 0.057518164955444206 0.066048989769771332 0.075076429055966731 0.099195984963509176 -0.054049453323856113 0.047758690503188386 0.044044385425219462 -0.056703330634347009 0.043094070326859316 -0.05136067165403288 0.059931478403102527 0.038024128191032125 -0.058938194555457603 -0.051869909303541552 -0.16372574654977887 0.039020627121679939 0.032310787198737777 0.040177147688178684 0.056221847759679006 -0.017879485517323525 0.039346388897973518 0.11171104523736514 0.033183171014070985 -0.0040840859380598228 -0.064926971922099619 -0.098576854262342584 -0.12290605215177752 0.052253924688076672 -0.10721414015541862
leaf_weight=276.59019522368908 281.31134101748466 283.09480047225952 217.19856204092503 194.71057331562042 11.102473348379133 266.82683007419109 242.00941896438599 220.36545541882515 225.91743394732475 204.6490331441164 225.38580191135406 105.36000180244446 195.28637531399727 150.55948428809643 181.81163083016872 6.6950739473104468 148.14083445072174 171.2818319350481 148.80173273384571 129.9879806637764 2982.0254242122173 136.24828425049782 22.606105759739876 148.94618128240108 61.137408018112183 247.72101992368698 12.159729480743406 8.6240609735250455 59.218670964241028 9.6614071130752546
leaf_count=1177 1204 1203 911 841 47 1121 1010 896 950 841 932 425 788 624 740 27 597 690 604 524 12016 551 91 611 254 1048 51 35 238 39
internal_value=-3.23221e-07 -0.00242106 8.25161e-05 -0.00233537 -0.00464889 -0.00243005 -0.000112567 -0.00223584 -0.00445047 -0.00219651 -0.00422758 -0.00201056 -0.00402291 -0.00552644 -0.00751062 -0.00563844 -0.00738451 -0.00916966 -0.00705379 0.0454483 -0.00905021 -0.0111656 -0.0133077 -0.0141936 0.0561602 -0.0578868 0.05079 0.0588329 -0.0165139 0.0616419
internal_weight=7575.44 7289.18 7007.87 6724.78 6468.93 6210.11 5943.28 5705.3 5463.29 5237.37 5017 4791.62 4586.97 4481.61 4286.32 4135.76 3999.08 3850.94 3669.13 136.683 3520.33 3349.04 3212.8 3190.19 255.848 258.823 237.982 225.823 3041.24 286.252
internal_count=31086 29870 28666 27463 26368 25273 24152 23155 22145 21195 20299 19367 18526 18101 17313 16689 16138 15541 14801 551 14197 13507 12956 12865 1095 1095 997 946 12254 1216
is_linear=0
shrinkage=0.1


Tree=7
num_leaves=31
num_cat=0
split_feature=1 23 5 1 23 5 3 39 29 29 3 32 32 39 16 50 18 4 43 50 25 20 23 13 51 21 35 4 19 26
split_gain=95.8867 93.9588 87.1692 77.4723 74.8762 61.111 54.0336 59.7365 58.0383 51.2843 41.1824 42.7997 50.5622 38.3296 37.5697 34.9814 36.8577 41.8211 35.3407 34.6422 33.9085 32.5192 27.9456 29.7657 27.2133 26.683 33.0377 31.868 26.1697 27.4215
threshold=1.0000000180025095e-35 1.0000000180025095e-35 -1.0000000180025095e-35 -1.0000000180025095e-35 -8.4999999999999982 3.5000000000000004 -12.499999999999998 3.5000000000000004 -2.4999999999999996 1.0000000180025095e-35 16.500000000000004 1.0000000180025095e-35 1.5000000000000002 -1.0000000180025095e-35 -3.4999999999999996 1.0000000180025095e-35 12.500000000000002 -1.0000000180025095e-35 -1.0000000180025095e-35 -3.4999999999999996 -8.4999999999999982 1.0000000180025095e-35 -23.499999999999996 4.5000000000000009 1.0000000180025095e-35 -1.0000000180025095e-35 1.0000000180025095e-35 1.0000000180025095e-35 -3.4999999999999996 1.5000000000000002
decision_type=2 2 2 2 2 2 2 2 2 2 2 2 2 2 2 2 2 2 2 2 2 2 2 2 2 2 2 2 2 2
left_child=1 2 -1 -4 22 6 -6 8 -8 10 11 13 -13 -10 -15 16 17 -16 -19 -20 -21 24 -5 -24 25 26 -22 28 -27 -30
right_child=-2 -3 3 4 5 -7 7 -9 9 -11 -12 12 -14 14 15 -17 -18 18 19 20 21 -23 23 -25 -26 27 -28 -29 29 -31
leaf_value=0.056083372603725229 -0.057004004498846496 0.060067809631123049 0.05096319150145872 -0.0022750457215535893 0.046230672653219063 -0.049688755991528152 0.050232890571536438 -0.0512569320070492 0.046413642651149306 -0.049346632195208247 -0.042009845115556228 -0.077310151401710589 0.028376644746172186 0.046324968119130186 0.05212294612613895 -0.061995798352827827 -0.041698506024756006 0.065616635591554048 0.064204586222613422 0.042590770619633671 0.047899971439545212 -0.048571815566242453 -0.085630757380081218 0.098278758092006799 0.057833895916501392 -0.048809694492216733 -0.15270051336750068 -0.053659635410522981 -0.00323986404897366 0.043403445437556858
leaf_weight=266.48388409614563 283.94688625633717 270.43900442123413 263.02113352715969 68.543509379029274 241.28173840045929 259.59654408693314 221.12056775391102 236.77956527471542 203.26350730657578 219.81841641664505 222.92983116209507 138.17461532354355 67.322886094450951 183.1562036126852 169.13790182769299 88.924518287181854 189.27779757976532 83.497620850801468 81.707819014787674 165.27023084461689 149.937051191926 154.79318059980869 181.56919480860233 9.2487988173961622 75.108138665556908 119.50500904023647 8.6856570839881879 129.67386147379875 2646.1502284258604 132.34493015706539
leaf_count=1149 1220 1177 1135 288 989 1105 940 988 859 934 910 560 272 741 701 362 767 337 335 667 605 627 803 38 304 482 35 527 10683 546
internal_value=1.23668e-06 0.00223485 -7.06045e-06 -0.00223471 -0.00440511 -0.00219865 -0.000118939 -0.00208555 5.08139e-05 -0.00207138 3.33391e-06 0.00196032 -0.0426862 0.00396335 0.00199207 5.6019e-05 0.00140019 0.00348344 0.00128768 -0.000178617 -0.00164746 -0.00378763 -0.0570435 -0.0767168 -0.00166208 -0.00306454 0.0369157 -0.00515914 -0.00298894 -0.00101816
internal_weight=7530.71 7246.76 6976.32 6709.84 6446.82 6187.46 5927.86 5686.58 5449.8 5228.68 5008.86 4785.93 205.498 4580.43 4377.17 4194.01 4105.09 3915.81 3746.67 3663.18 3581.47 3416.2 259.362 190.818 3261.4 3186.3 158.623 3027.67 2898 2778.5
internal_count=31086 29866 28689 27540 26405 25276 24171 23182 22194 21254 20320 19410 832 18578 17719 16978 16616 15849 15148 14811 14476 13809 1129 841 13182 12878 640 12238 11711 11229
is_linear=0
shrinkage=0.1


Tree=8
num_leaves=31
num_cat=0
split_feature=1 23 5 5 1 13 23 26 44 45 27 15 46 19 3 37 8 14 13 19 47 42 27 15 32 0 7 34 12 37
split_gain=78.8424 77.6428 71.7856 65.1551 65.0523 58.1246 63.3002 53.5501 48.5638 131.185 50.3476 99.961 42.0709 44.34 52.5256 41.5464 43.7236 46.524 43.7202 42.0452 44.1226 47.9947 36.6529 93.0222 36.8771 35.3696 34.6138 32.0008 31.3782 30.8513
threshold=1.0000000180025095e-35 1.0000000180025095e-35 -1.0000000180025095e-35 1.0000000180025095e-35 -1.0000000180025095e-35 1.0000000180025095e-35 -8.4999999999999982 -1.4999999999999998 1.5000000000000002 1.5000000000000002 2.5000000000000004 2.5000000000000004 -2.4999999999999996 -2.4999999999999996 16.500000000000004 -1.4999999999999998 -1.0000000180025095e-35 1.0000000180025095e-35 -1.0000000180025095e-35 1.0000000180025095e-35 -3.4999999999999996 -4.4999999999999991 -1.4999999999999998 -1.4999999999999998 -1.4999999999999998 -1.4999999999999998 -1.0000000180025095e-35 3.5000000000000004 9.5000000000000018 1.5000000000000002
decision_type=2 2 2 2 2 2 2 2 2 2 2 2 2 2 2 2 2 2 2 2 2 2 2 2 2 2 2 2 2 2
left_child=1 2 -1 4 -4 6 -6 -8 10 -10 12 -12 -9 -14 15 -15 28 18 -18 20 -20 -22 23 -23 -24 -26 -27 29 -17 -28
right_child=-2 -3 3 -5 5 -7 7 8 9 -11 11 -13 13 14 -16 16 17 -19 19 -21 21 22 24 -25 25 26 27 -29 -30 -31
leaf_value=0.051294503987533317 -0.052056327686060694 0.055073236597604519 0.050181186780517022 -0.048750759621400255 -0.056099407214316402 0.044081367768132575 -0.048408480553627148 -0.048890726469019201 0.15361196513307671 -0.025152518778710775 0.17241909708999914 -0.0007256346413869304 -0.045802043444747809 -0.047981428057797461 -0.049814430062933145 -0.049683229235353718 -0.03671390881056831 -0.04195319979846112 -0.046448703170997516 0.059002238053406 -0.057960855266126446 0.0086249864406042001 -0.067464744202531263 -0.1744296282587206 -0.055007926143801837 -0.028162571938328985 0.017556487589034171 0.090201409659661308 0.13120089350041247 0.074594834226519482
leaf_weight=262.44452500343323 280.05111561715603 265.72248451411724 248.91774863004684 285.637266933918 224.47990448772907 262.41987755894661 237.71243099868298 194.66109193861485 73.09516903758049 93.639792814850807 49.147334888577461 103.69335974752903 215.85658748447895 155.66977988183498 198.29829566180706 193.03096935153008 197.56853923201561 186.69148190319538 137.07035839557648 177.87560388445854 96.919544100761414 119.24015215039253 52.386935830116272 36.184482559561729 66.511393412947655 149.87539242208004 2747.4875249415636 65.539469793438911 10.091545343399046 98.218799322843552
leaf_count=1149 1220 1177 1089 1233 1002 1071 990 794 312 381 203 422 881 636 816 786 814 762 559 733 395 487 213 156 271 611 11213 267 41 402
internal_value=1.03336e-06 0.00202415 -6.9202e-06 -0.00202308 6.49288e-05 -0.00196569 -0.0040204 -0.00195362 8.42842e-05 0.0532163 -0.00160249 0.0549507 -0.00329759 -0.00148799 0.00055214 0.00277637 0.00459921 0.00682611 0.00913459 0.0115519 0.00918726 0.0114091 0.0134248 -0.033992 0.0157423 0.017136 0.0187035 0.0211163 -0.0406965 0.0195252
internal_weight=7486.14 7206.09 6940.37 6677.92 6392.28 6143.37 5880.95 5656.47 5418.75 166.735 5252.02 152.841 5099.18 4904.52 4688.66 4490.36 4334.69 4131.57 3944.88 3747.31 3569.43 3432.36 3335.44 155.425 3180.02 3127.63 3061.12 2911.25 203.123 2845.71
internal_count=31086 29866 28689 27540 26307 25218 24147 23145 22155 693 21462 625 20837 20043 19162 18346 17710 16883 16121 15307 14574 14015 13620 643 12977 12764 12493 11882 827 11615
is_linear=0
shrinkage=0.1


Tree=9
num_leaves=31
num_cat=0
split_feature=1 23 29 1 51 5 23 51 39 7 53 5 26 29 56 26 28 37 13 27 15 44 45 17 46 42 7 11 34 23
split_gain=65.7394 67.1062 60.3472 55.6137 56.6698 55.6722 48.8952 46.5039 42.552 42.3074 41.9278 36.9158 37.5744 34.3853 32.6696 29.6108 31.7963 30.6772 32.2445 31.7488 59.1093 30.3808 77.4924 30.5813 29.8967 29.4849 29.3543 28.1753 26.239 25.9444
threshold=-1.0000000180025095e-35 -8.4999999999999982 -2.4999999999999996 7.5000000000000009 -1.0000000180025095e-35 -1.0000000180025095e-35 1.0000000180025095e-35 1.0000000180025095e-35 -1.0000000180025095e-35 1.0000000180025095e-35 -1.0000000180025095e-35 3.5000000000000004 -2.4999999999999996 1.0000000180025095e-35 -1.0000000180025095e-35 2.5000000000000004 -2.4999999999999996 -1.4999999999999998 5.5000000000000009 2.5000000000000004 2.5000000000000004 1.5000000000000002 1.5000000000000002 1.0000000180025095e-35 2.5000000000000004 1.0000000180025095e-35 -1.0000000180025095e-35 2.5000000000000004 3.5000000000000004 -25.499999999999996
decision_type=2 2 2 2 2 2 2 2 2 2 2 2 2 2 2 2 2 2 2 2 2 2 2 2 2 2 2 2 2 2
left_child=-1 29 -3 4 -4 -6 7 8 -7 10 -10 12 -12 14 -14 16 -16 -18 19 21 -21 23 -23 24 25 26 27 -19 -28 -2
right_child=1 2 3 -5 5 6 -8 -9 9 -11 11 -13 13 -15 15 -17 17 18 -20 20 -22 22 -24 -25 -26 -27 28 -29 -30 -31
leaf_value=0.048086357159159966 0.014244878072828343 0.046390690801678958 -0.065995743583777217 -0.048036458075655153 0.047529487696611486 0.037483957867523114 0.045420005201583215 0.058590102497546037 0.052797874236349698 0.036771082257977199 -0.054703315633321717 -0.049605059509900955 -0.19047861398097157 -0.046688012869104172 -0.076913230739372687 0.041388452504140569 -0.047708966529383195 -0.064930828474155225 0.044293617468975678 0.15947681957335924 0.0014765008651659041 0.141906503147016 -0.020191364342788756 0.056047439139223935 0.03515539280703097 0.031739528272258129 -0.011332625205217804 0.12672395580098983 0.047951304267333322 -0.065981633273314563
leaf_weight=273.88683773577213 49.508215561509132 270.22445306181908 127.5338978022337 250.5272288620472 250.4973314255476 240.50174076855183 222.44965015351772 122.54355895519257 113.36887377500534 226.83852116763592 159.15183463692665 211.35483646392822 9.3288314044475538 192.52675208449364 60.008330836892128 144.49563570320606 152.20480734109879 144.75880761444569 145.20211750268936 33.716103479266167 79.526749283075333 48.626742199063301 74.947631105780602 75.877684995532036 153.25196476280689 161.82316689193249 3148.4052776247263 8.0997891426086408 76.470794677734375 216.95167218148708
leaf_count=1216 206 1167 527 1107 1115 1028 1002 503 463 927 675 925 38 832 243 604 621 590 591 141 322 216 304 311 625 656 12792 33 311 995
internal_value=3.75674e-06 -0.00183277 6.76878e-05 -0.00181919 -5.34564e-06 0.00133993 -0.000586704 -0.00235639 -0.00367582 -0.00550221 -0.00734872 -0.00869106 -0.00691484 -0.00529981 -0.00353563 -0.00314872 -0.00462375 -0.0036156 -0.00199871 -0.00367684 0.0485184 -0.00519543 0.0435944 -0.00679524 -0.00808649 -0.00995873 -0.0119564 -0.0547753 -0.00992684 -0.0510756
internal_weight=7444.61 7170.72 6904.26 6634.04 6383.51 6255.98 6005.48 5783.03 5660.49 5419.99 5193.15 5079.78 4868.42 4709.27 4516.74 4507.42 4362.92 4302.91 4150.71 4005.5 113.243 3892.26 123.574 3768.69 3692.81 3539.56 3377.73 152.859 3224.88 266.46
internal_count=31086 29870 28669 27502 26395 25868 24753 23751 23248 22220 21293 20830 19905 19230 18398 18360 17756 17513 16892 16301 463 15838 520 15318 15007 14382 13726 623 13103 1201
is_linear=0
shrinkage=0.1


Tree=10
num_leaves=31
num_cat=0
split_feature=19 23 3 26 27 15 23 37 8 42 27 15 5 14 0 46 28 44 45 58 51 32 42 26 62 13 12 48 34 0
split_gain=65.5836 64.791 59.5467 55.555 58.4086 124.313 48.8866 51.2924 52.6051 49.4335 49.8186 73.2433 45.0061 44.9441 51.3992 48.4184 43.7765 42.3361 94.5022 41.3347 41.8596 39.4482 38.7047 38.6583 40.5565 37.7809 34.2102 33.9806 33.5429 31.2426
threshold=3.5000000000000004 -8.4999999999999982 -15.499999999999998 -2.4999999999999996 1.5000000000000002 1.5000000000000002 1.0000000180025095e-35 1.5000000000000002 2.5000000000000004 -4.4999999999999991 -2.4999999999999996 -2.4999999999999996 -1.0000000180025095e-35 -1.0000000180025095e-35 1.5000000000000002 2.5000000000000004 1.5000000000000002 1.5000000000000002 1.5000000000000002 3.5000000000000004 4.5000000000000009 1.0000000180025095e-35 1.0000000180025095e-35 1.5000000000000002 1.0000000180025095e-35 1.0000000180025095e-35 -14.499999999999998 -22.499999999999996 2.5000000000000004 1.0000000180025095e-35
decision_type=2 2 2 2 2 2 2 2 2 2 2 2 2 2 2 2 2 2 2 2 2 2 2 2 2 2 2 2 2 2
left_child=1 -1 -3 -4 6 -6 7 8 9 -5 11 -11 -12 21 15 16 17 19 -19 20 22 29 23 24 25 28 -2 -9 -15 -14
right_child=26 2 3 4 5 -7 -8 27 -10 10 12 -13 13 14 -16 -17 -18 18 -20 -21 -22 -23 -24 -25 -26 -27 -28 -29 -30 -31
leaf_value=-0.051516040855978301 -0.15529030359118234 0.046385720964310054 -0.053781846808789259 -0.066183912896171024 0.1597545190904204 0.0032122246218860874 0.0425332224525879 -0.13914804215207496 0.04211972831147795 -0.015609139316950252 0.041602654085193924 -0.16097816612974186 0.055586869452403445 -0.025966199707758066 0.066314357135917698 0.040542044241052816 0.055928659182431631 0.14051792571340435 -0.029717108060214409 0.10348727059372154 0.051472558085503009 -0.16835048284639031 0.027379002542275391 0.025091528606447797 0.20429097737182089 0.023201784910145792 0.053329231919570598 0.055968726354534704 0.029942634791032176 -0.11745003336930276
leaf_weight=253.47840584814548 8.092959985136984 265.65750741958618 200.14822199940681 140.498963072896 70.360288426280022 181.81501565873623 234.82387816905975 9.3785405755043012 221.08574233949184 111.71123962104321 204.37129855155945 50.25043061375618 200.33831399679184 3483.4387689977884 90.536574706435204 183.85400696098804 93.410403057932854 56.442975208163261 77.226554304361343 29.247391477227211 90.511747658252716 8.8995331525802595 185.46894626319408 186.44927950203419 7.9346889704465857 176.0548237413168 273.54730431735516 184.84819751977921 110.72071307897568 11.007776275277136
leaf_count=1166 34 1116 865 586 304 755 1071 39 917 462 920 229 827 14426 375 764 386 259 319 121 375 36 765 785 33 727 1152 770 457 45
internal_value=5.64471e-06 -0.00186651 -3.3689e-05 -0.00190189 -0.000279611 0.0468896 -0.00221421 -0.00399107 -0.00570729 -0.00763038 -0.00609494 -0.0607115 -0.00439249 -0.00627569 -0.0083144 -0.00975789 -0.0118144 -0.0132514 0.0421659 -0.0149863 -0.0158034 0.0378899 -0.0172707 -0.0193594 -0.021553 -0.0220284 0.0473345 0.0465472 -0.0242439 0.0465744
internal_weight=7401.61 7119.97 6866.49 6600.83 6400.69 252.175 6148.51 5913.69 5719.46 5498.37 5357.88 161.962 5195.91 4991.54 4771.3 4680.76 4496.91 4403.5 133.67 4269.83 4240.58 220.246 4150.07 3964.6 3778.15 3770.21 281.64 194.227 3594.16 211.346
internal_count=31086 29900 28734 27618 26753 1059 25694 24623 23814 22897 22311 691 21620 20700 19792 19417 18653 18267 578 17689 17568 908 17193 16428 15643 15610 1186 809 14883 872
is_linear=0
shrinkage=0.1


Tree=11
num_leaves=31
num_cat=0
split_feature=14 1 19 8 19 23 23 37 26 27 15 12 3 37 48 5 3 0 51 48 13 28 7 47 46 27 15 34 44 45
split_gain=58.5842 60.1801 51.7523 52.8484 53.3583 54.981 49.1497 50.1273 45.6473 45.5282 85.0204 43.2063 43.0203 45.2991 40.7484 40.2349 34.8552 33.7872 33.3805 32.2567 32.1338 34.7547 33.7459 36.1893 35.7795 34.9674 70.3029 34.4756 33.3212 82.3215
threshold=1.0000000180025095e-35 -1.0000000180025095e-35 -3.4999999999999996 -2.4999999999999996 1.0000000180025095e-35 1.0000000180025095e-35 -8.4999999999999982 -1.4999999999999998 -2.4999999999999996 1.5000000000000002 1.5000000000000002 9.5000000000000018 -15.499999999999998 1.5000000000000002 16.500000000000004 -1.0000000180025095e-35 21.500000000000004 -1.0000000180025095e-35 -1.0000000180025095e-35 -21.499999999999996 -1.0000000180025095e-35 1.5000000000000002 1.0000000180025095e-35 -3.4999999999999996 -2.4999999999999996 -1.4999999999999998 -1.4999999999999998 -2.4999999999999996 -1.4999999999999998 -1.4999999999999998
decision_type=2 2 2 2 2 2 2 2 2 2 2 2 2 2 2 2 2 2 2 2 2 2 2 2 2 2 2 2 2 2
left_child=1 -1 14 11 5 6 -5 -8 -9 12 -11 -4 -10 15 -3 -14 18 -2 -17 -15 -20 22 23 -22 -25 26 -26 -27 29 -29
right_child=17 2 3 4 -6 -7 7 8 9 10 -12 -13 13 19 -16 16 -18 -19 20 -21 21 -23 -24 24 25 27 -28 28 -30 -31
leaf_value=0.04928122415527128 0.11280757812702542 -0.053128268567682824 -0.053610939766723015 -0.046423806734531191 0.046764795796815049 0.050860734820209953 -0.048446723854316545 -0.048042778528689663 0.047713806311573383 0.1528766828948793 0.010996562675303832 0.12587573970278121 0.044411122740542562 -0.12309658802666457 0.14229791726037755 -0.061847182844711593 -0.049740676530292585 -0.050391234684247881 -0.039662778258412447 0.065068126960490982 -0.051174695361880462 0.065766672397154002 0.044382876448554806 -0.045807516593850177 -0.005639166476435524 -0.051326944097230091 -0.15728188760278294 0.019757619580137799 0.0090559368446984003 -0.15468639392802214
leaf_weight=257.73202101886272 13.270859465003012 240.41956996917725 235.26789815723896 221.83416694402695 273.29732763767242 218.28317473828793 193.4402482509613 167.38920068740845 207.23063236474991 58.622813254594803 151.09355896711349 14.222414419054983 190.36451524496078 9.7011881321668607 11.164999365806578 87.970862254500389 151.10407903790474 287.75085301697254 191.24569569528103 149.63326285779476 138.66671527922153 84.444867372512817 171.00010846555233 157.09934164583683 130.29534001648426 104.31478440761566 39.945123627781868 72.128754615783691 3094.705030888319 43.287072911858559
leaf_count=1166 55 1008 984 1042 1155 1010 808 730 871 260 625 59 868 40 46 365 631 1206 800 625 575 348 705 653 541 433 186 295 12801 195
internal_value=8.36066e-06 0.00184897 5.33638e-05 0.00176123 0.00354685 0.00158932 -0.000260068 0.00157069 0.00336235 0.0050067 0.0506569 -0.0433791 0.00310081 0.00118109 -0.0444555 -0.000612932 -0.00253201 -0.0431964 -0.000878877 0.0536116 0.000389935 0.00228788 0.000931301 -0.00103414 0.000875049 0.00297964 -0.0412205 0.0052499 0.0070884 -0.0456682
internal_weight=7366.93 7065.9 6808.17 6556.59 6307.1 6033.8 5815.52 5593.68 5400.24 5232.85 209.716 249.49 5023.14 4815.91 251.585 4656.57 4466.21 301.022 4315.1 159.334 4227.13 4035.89 3951.44 3780.44 3641.78 3484.68 170.24 3314.44 3210.12 115.416
internal_count=31086 29825 28659 27605 26562 25407 24397 23355 22547 21817 885 1043 20932 20061 1054 19396 18528 1261 17897 665 17532 16732 16384 15679 15104 14451 727 13724 13291 490
is_linear=0
shrinkage=0.1


Tree=12
num_leaves=31
num_cat=0
split_feature=29 16 1 50 1 5 5 62 56 13 51 39 29 4 3 50 14 51 19 21 17 48 14 20 18 4 32 32 25 43
split_gain=54.6716 53.1283 52.1604 50.3288 47.5416 47.8294 43.3244 37.9187 36.0699 35.9985 33.9427 34.3518 37.6149 27.8498 30.0443 30.1971 28.9097 26.9716 27.2063 26.343 26.2489 26.1466 25.6924 27.857 29.4978 28.6898 25.9568 36.7899 27.0169 24.579
threshold=1.0000000180025095e-35 1.0000000180025095e-35 -1.0000000180025095e-35 -1.0000000180025095e-35 1.0000000180025095e-35 -1.0000000180025095e-35 3.5000000000000004 -1.0000000180025095e-35 -1.0000000180025095e-35 5.5000000000000009 4.5000000000000009 1.0000000180025095e-35 -2.4999999999999996 1.0000000180025095e-35 20.500000000000004 1.0000000180025095e-35 -1.0000000180025095e-35 -1.0000000180025095e-35 -5.4999999999999991 2.5000000000000004 1.0000000180025095e-35 -20.499999999999996 1.0000000180025095e-35 1.0000000180025095e-35 11.500000000000002 -1.0000000180025095e-35 1.0000000180025095e-35 1.5000000000000002 -8.4999999999999982 -6.4999999999999991
decision_type=2 2 2 2 2 2 2 2 2 2 2 2 2 2 2 2 2 2 2 2 2 2 2 2 2 2 2 2 2 2
left_child=1 2 -1 -4 5 -5 7 -7 -9 10 11 12 19 14 15 17 -16 -14 -19 -10 22 -6 23 24 25 -20 28 -28 -27 -30
right_child=-2 -3 3 4 21 6 -8 8 9 -11 -12 -13 13 -15 16 -17 -18 18 20 -21 -22 -23 -24 -25 -26 26 27 -29 29 -31
leaf_value=0.04926095815817625 -0.043483628243783386 -0.039276232311463023 0.06372447583858859 0.047454590247089298 0.10943049477891681 -0.19111977073760444 -0.040091568112679332 -0.18234420743744953 0.053244010385933252 0.044085749509953157 0.055335314409847902 -0.036960662217889649 -0.05099109954796887 -0.035917750919305685 0.12983522914473675 -0.04980330904914148 -0.049111098618839992 -0.064932681837033338 0.054288339301896076 -0.10177773343163497 0.059008824928749398 -0.048782047479769962 -0.029271317666632293 -0.030559008174504028 -0.029021787960648773 0.05422876902653001 -0.061806446181725885 0.037168523022690914 0.077275210352900026 0.0082914899088096777
leaf_weight=240.8240021020174 278.08699518442154 302.52272041141987 128.93188324570656 226.60237091779709 10.918291553854941 10.102795928716658 250.09288720786572 10.504439249634741 191.05307008326054 206.76121413707733 114.93826884031296 235.11089703440666 85.022886157035828 202.55834145843983 9.5614305287599546 103.73352041840553 161.8644392490387 53.573492661118507 148.57654716074467 11.628956973552702 94.086306422948837 241.27934809029102 201.12037093937397 184.63581059873104 191.44579295814037 140.82139687240124 112.65253764390945 56.337621062994003 52.533585175871849 3071.4820521771908
leaf_count=1111 1227 1273 549 1052 47 42 1118 44 848 858 482 1011 351 847 40 433 685 222 636 49 395 1091 830 769 796 583 466 232 219 12780
internal_value=6.54916e-06 0.00172171 0.0035595 0.00186833 0.000618098 0.00236961 0.000638086 0.00244092 0.00278764 0.00313309 0.00157162 0.00040739 0.00213934 0.000382615 0.00195798 0.00352461 -0.0391302 0.00478406 0.00588503 0.0443496 0.00677695 -0.0419326 0.00559552 0.00736701 0.00922254 0.0112663 0.00940484 -0.0288104 0.0113829 0.00945152
internal_weight=7329.36 7051.28 6748.75 6507.93 6379 6126.8 5900.2 5650.11 5640 5629.5 5422.74 5307.8 5072.69 4870.01 4667.45 4496.02 171.426 4392.29 4307.27 202.682 4253.69 252.198 4159.61 3958.49 3773.85 3582.4 3433.83 168.99 3264.84 3124.02
internal_count=31086 29859 28586 27475 26926 25788 24736 23618 23576 23532 22674 22192 21181 20284 19437 18712 725 18279 17928 897 17706 1138 17311 16481 15712 14916 14280 698 13582 12999
is_linear=0
shrinkage=0.1


Tree=13
num_leaves=31
num_cat=0
split_feature=13 19 23 39 29 1 5 26 44 45 13 23 26 7 42 12 0 56 27 15 37 20 8 19 48 37 27 15 23 46
split_gain=44.9372 49.8213 44.59 41.7275 44.2627 41.8788 39.052 34.7244 36.0316 122.628 34.965 34.7362 33.8459 34.5553 32.9441 28.9681 28.9116 28.4705 27.7924 53.0874 29.7211 28.3124 27.2196 25.6124 28.778 25.5408 25.4895 39.6611 25.4829 23.7262
threshold=-1.0000000180025095e-35 1.0000000180025095e-35 1.0000000180025095e-35 -1.0000000180025095e-35 1.0000000180025095e-35 7.5000000000000009 1.0000000180025095e-35 2.5000000000000004 -1.4999999999999998 -1.4999999999999998 1.0000000180025095e-35 -7.4999999999999991 -1.4999999999999998 -1.0000000180025095e-35 -4.4999999999999991 -8.4999999999999982 1.5000000000000002 -1.0000000180025095e-35 -2.4999999999999996 -2.4999999999999996 -1.4999999999999998 -1.0000000180025095e-35 -2.4999999999999996 -2.4999999999999996 16.500000000000004 -1.0000000180025095e-35 2.5000000000000004 2.5000000000000004 23.500000000000004 -2.4999999999999996
decision_type=2 2 2 2 2 2 2 2 2 2 2 2 2 2 2 2 2 2 2 2 2 2 2 2 2 2 2 2 2 2
left_child=-1 2 3 -2 5 6 7 8 9 -5 11 -10 -13 -14 -15 -3 17 -16 19 -19 -20 -22 -17 24 -23 -12 29 -28 -4 -25
right_child=1 15 28 4 -6 -7 -8 -9 10 -11 25 12 13 14 16 22 -18 18 20 -21 21 23 -24 26 -26 -27 27 -29 -30 -31
leaf_value=-0.03821554621309152 0.037275653184942442 -0.11687522128048181 0.060597375839438306 0.020517967928463391 -0.045289030190821228 -0.044387013569792876 -0.039480922505927107 0.045602624347240356 -0.043609347477879284 -0.15701064274570317 -0.10117324051895252 -0.038238480717831473 -0.037664746648588376 -0.046920934094702271 -0.18798094748600505 -0.0998442175133189 0.06625983872721937 -0.0002817006219215748 -0.038403751276662124 -0.14846671452246521 0.048541263722708575 -0.038184941879145437 0.055713915803298812 -0.031427397104075508 0.15011717069317909 0.046753136730243471 0.14224543851676472 0.011584108038838749 -0.015685550838713272 0.0092716317188769083
leaf_weight=295.14359465241432 263.7107789516449 10.947225213050841 181.98526082932949 104.64507254958153 241.72525052726269 220.70974257588387 240.06358058750629 174.61707063019276 176.51527512073517 61.939655244350433 12.306092441081999 204.41658216714859 196.48220978677273 117.94643764197826 7.590302199125289 11.754196122288702 79.857779547572136 87.00729139149189 137.51737813651562 33.478224247694016 172.19625614583492 174.41191226243973 261.47247894108295 149.77260702848434 8.5122554600238782 226.49989619851112 36.234315648674965 64.735541701316833 57.66912367939949 3283.2255400270224
leaf_count=1260 1153 46 877 431 1081 1012 1087 756 850 289 50 886 814 488 32 48 333 358 572 170 713 723 1123 620 35 948 175 266 254 13636
internal_value=6.88112e-06 0.00161848 -0.000116939 -0.00168443 -0.00333825 -0.00163986 9.67654e-07 0.00172117 0.000284989 -0.0454908 0.00176032 -4.98902e-05 0.00156768 0.00335644 0.00520824 0.042631 0.00666022 0.00551464 0.00586879 -0.0414565 0.00728488 0.00890042 0.0490218 0.00706394 -0.0294224 0.0391302 0.00895253 0.0584736 0.0422411 0.00749604
internal_weight=7295.09 6999.95 6715.77 6476.12 6212.41 5970.68 5749.97 5509.91 5335.29 166.585 5168.71 4929.9 4753.38 4548.97 4352.49 284.174 4234.54 4154.68 4147.09 120.486 4026.61 3889.09 273.227 3716.89 182.924 238.806 3533.97 100.97 239.654 3433
internal_count=31086 29826 28609 27478 26325 25244 24232 23145 22389 720 21669 20671 19821 18935 18121 1217 17633 17300 17268 528 16740 16168 1171 15455 758 998 14697 441 1131 14256
is_linear=0
shrinkage=0.1


Tree=14
num_leaves=31
num_cat=0
split_feature=29 14 62 8 0 16 1 5 39 40 12 1 53 16 5 20 18 3 11 32 32 13 35 0 32 32 33 48 29 48
split_gain=43.3942 42.0631 42.6481 43.489 45.1256 42.0236 42.5065 39.4032 38.6168 36.4549 35.2513 33.3742 30.7125 29.9793 30.8288 31.3952 35.3948 28.6923 27.5949 27.3729 59.6312 28.4103 27.8728 26.2376 25.0855 27.2708 25.4675 33.5941 25.8937 23.0234
threshold=-2.4999999999999996 1.0000000180025095e-35 1.0000000180025095e-35 -2.4999999999999996 -1.4999999999999998 1.0000000180025095e-35 -1.0000000180025095e-35 -1.0000000180025095e-35 -1.0000000180025095e-35 -6.4999999999999991 9.5000000000000018 7.5000000000000009 -1.0000000180025095e-35 -1.0000000180025095e-35 1.0000000180025095e-35 1.0000000180025095e-35 13.500000000000002 -1.0000000180025095e-35 -1.0000000180025095e-35 -1.4999999999999998 -1.0000000180025095e-35 -1.0000000180025095e-35 17.500000000000004 -1.0000000180025095e-35 1.0000000180025095e-35 1.5000000000000002 -2.4999999999999996 17.500000000000004 1.0000000180025095e-35 -20.499999999999996
decision_type=2 2 2 2 2 2 2 2 2 2 2 2 2 2 2 2 2 2 2 2 2 2 2 2 2 2 2 2 2 2
left_child=-1 2 3 10 -5 6 -6 -8 -9 -10 -2 12 -11 -14 15 16 17 -15 -3 -19 -21 -22 24 -20 26 -26 27 -23 -28 -13
right_child=1 18 -4 4 5 -7 7 8 9 11 -12 29 13 14 -16 -17 -18 19 23 20 21 22 -24 -25 25 -27 28 -29 -30 -31
leaf_value=0.039302014340350411 -0.050111550179256587 0.096097192810307389 0.17105791155041628 -0.060662345669303945 0.046828777645420996 -0.036380710932065914 0.043599566532083522 0.04023763938454377 0.037128608473622586 0.051855038266405973 0.11406344410754155 0.10504104888211314 0.032842996946007418 0.041237653212910397 -0.043872051749943783 -0.04307156233344666 -0.043890320014445004 -0.0692157951365968 0.098179069283975698 0.070153451682925236 -0.040834651753036758 0.055346488685404642 -0.040746647184862539 -0.052916449571948437 -0.067757738538473611 0.020634766953006346 0.0040546100403442108 -0.15237156371677488 -0.042118480317098694 -0.051798602585015965
leaf_weight=270.48979690670967 237.70429056882858 14.342897519469259 14.557712540030478 115.40155521035194 224.72316333651543 267.07178334891796 224.35073645412922 238.4380080550909 240.86142435669899 107.17782463133335 13.840081766247748 9.8695927858352643 231.51513706147671 172.5084526091814 186.40108133852482 181.54432547837496 180.79591909050941 57.023937687277794 12.025194630026816 119.35109195113182 176.32312889397144 143.67414557933807 158.00229804217815 259.51256394386292 100.84239070117474 53.378756076097488 2925.9497720003128 8.2321224659681302 126.71530245244503 181.12956307828426
leaf_count=1214 1008 60 62 489 1056 1130 1059 1054 1018 449 58 42 976 737 858 767 761 238 50 501 750 599 661 1098 421 222 12287 34 577 850
internal_value=2.40204e-06 -0.00151983 8.36414e-05 -0.000288805 0.00130659 0.00243887 0.00415286 0.0025062 0.000859815 -0.000891472 -0.0410786 -0.00267991 -0.00109074 -0.0022675 -0.00403815 -0.0023523 -0.000601714 0.00133456 -0.0390847 -0.000444392 0.000584237 -0.00166404 0.000299872 -0.0462251 0.00223076 -0.0371635 0.00412662 0.0440898 0.00213798 -0.0436942
internal_weight=7253.75 6983.26 6697.38 6682.83 6431.28 6315.88 6048.81 5824.09 5599.73 5361.3 251.544 5120.43 4929.44 4822.26 4590.74 4404.34 4222.8 4042 285.881 3869.49 3812.47 3693.12 3516.79 271.538 3358.79 154.221 3204.57 151.906 3052.67 190.999
internal_count=31086 29872 28664 28602 27536 27047 25917 24861 23802 22748 1066 21730 20838 20389 19413 18555 17788 17027 1208 16290 16052 15551 14801 1148 14140 643 13497 633 12864 892
is_linear=0
shrinkage=0.1


Tree=15
num_leaves=31
num_cat=0
split_feature=50 50 3 19 14 28 37 46 8 19 27 15 1 34 3 27 15 51 5 23 48 48 0 48 16 12 12 14 42 46
split_gain=40.71 38.0751 38.5729 38.4415 38.4833 40.5362 40.7115 40.5304 36.9297 39.6333 38.5017 58.2648 36.7028 34.8255 34.1847 30.9858 61.9505 33.5148 30.2663 26.6166 26.4774 26.005 25.9826 25.9524 25.9316 24.8161 24.6963 23.7185 23.2863 23.0943
threshold=-1.0000000180025095e-35 1.0000000180025095e-35 20.500000000000004 -2.4999999999999996 1.0000000180025095e-35 -2.4999999999999996 -1.4999999999999998 -2.4999999999999996 -2.4999999999999996 3.5000000000000004 -2.4999999999999996 -2.4999999999999996 -1.0000000180025095e-35 -2.4999999999999996 -12.499999999999998 1.5000000000000002 1.5000000000000002 -1.0000000180025095e-35 -1.0000000180025095e-35 -8.4999999999999982 17.500000000000004 1.0000000180025095e-35 -1.0000000180025095e-35 -1.0000000180025095e-35 3.5000000000000004 9.5000000000000018 -14.499999999999998 -1.0000000180025095e-35 3.5000000000000004 2.5000000000000004
decision_type=2 2 2 2 2 2 2 2 2 2 2 2 2 2 2 2 2 2 2 2 2 2 2 2 2 2 2 2 2 2
left_child=-1 2 3 21 5 -5 -7 20 25 10 11 -10 -12 -14 -15 17 -17 -16 24 -20 -8 -2 -6 -11 -19 -9 -25 -4 29 -21
right_child=1 -3 27 4 22 6 7 8 9 23 12 -13 13 14 15 16 -18 18 19 28 -22 -23 -24 26 -26 -27 -28 -29 -30 -31
leaf_value=0.05265214108714688 -0.041919824227645508 -0.052048275488130472 0.093408035125976938 -0.064622488591767321 0.10594339766234195 -0.038643815623845147 -0.04188274264991259 -0.039577805216210543 -0.0053129853956654059 -0.1128874314324174 0.052746340921955362 -0.14975723039192113 -0.041599127319671303 0.048925626918996129 -0.053224240305269677 0.14340501443247319 0.012316240910461358 0.057383437481256939 -0.033440549449910886 0.0043693802006000704 0.12251909469448979 0.11401028173319723 -0.040867005594373833 -0.13404862299811204 -0.11665437651117637 0.10602282374676497 0.065040572403572736 -0.047665393032804114 0.047550830158698029 0.044465544353371182
leaf_weight=143.93314400315285 260.01467728614807 143.53198075294495 12.599771112203596 83.566768154501915 12.646699756383894 201.95953239500523 216.42781062424183 208.45595702528954 110.93122731149197 9.1663980334997159 193.42942680418491 37.320965856313705 135.80474843084812 212.85333505272865 92.788459092378616 49.816334083676338 130.46354612708092 165.08351987600327 165.95785173773766 3615.8836736530066 10.260749086737631 11.154215827584265 257.6737527102232 6.4261104613542548 9.0296378284692747 12.402429431676863 204.8927406668663 220.19766561686993 139.62543572485447 149.59078989923
leaf_count=624 1113 620 53 355 53 868 924 886 467 40 924 199 578 924 396 240 557 792 809 15281 43 47 1093 27 41 53 898 959 586 636
internal_value=1.94486e-06 -0.00106842 -1.35151e-05 0.00137614 0.00293095 0.00455098 0.00550196 0.0070191 0.00868259 0.0103132 0.00855533 -0.0416753 0.0100269 0.0083291 0.00976227 0.0079173 0.0485397 0.00622908 0.00752858 0.00578238 -0.0344413 -0.0355058 -0.0339986 0.0518409 0.0483577 -0.0314015 0.0589864 -0.04003 0.00744926 0.00596228
internal_weight=7223.89 7079.96 6936.42 6703.63 6432.46 6162.14 6078.57 5876.61 5649.92 5429.06 5208.58 148.252 5060.33 4866.9 4731.09 4518.24 180.28 4337.96 4245.17 4071.06 226.689 271.169 270.32 220.485 174.113 220.858 211.319 232.797 3905.1 3765.47
internal_count=31086 30462 29842 28830 27670 26524 26169 25301 24334 23395 22430 666 21764 20840 20262 19338 797 18541 18145 17312 967 1160 1146 965 833 939 925 1012 16503 15917
is_linear=0
shrinkage=0.1


Tree=16
num_leaves=31
num_cat=0
split_feature=56 44 45 50 51 8 13 46 19 23 42 28 47 13 23 26 19 27 15 7 47 26 27 15 34 3 37 58 51 42
split_gain=36.6615 36.4845 140.166 36.5888 36.1151 35.039 36.5094 39.1146 39.9363 38.6087 38.0682 34.6682 32.4303 32.3592 41.3778 38.2744 35.7669 33.6321 42.808 31.0881 32.9326 34.906 30.8041 61.552 28.3464 28.5547 30.9919 28.8458 26.9881 26.9046
threshold=-1.0000000180025095e-35 1.5000000000000002 1.5000000000000002 -1.0000000180025095e-35 4.5000000000000009 2.5000000000000004 -1.0000000180025095e-35 -3.4999999999999996 1.0000000180025095e-35 1.0000000180025095e-35 -4.4999999999999991 2.5000000000000004 -3.4999999999999996 1.0000000180025095e-35 -8.4999999999999982 -2.4999999999999996 -2.4999999999999996 2.5000000000000004 2.5000000000000004 -8.4999999999999982 4.5000000000000009 2.5000000000000004 -1.4999999999999998 -1.4999999999999998 -2.4999999999999996 21.500000000000004 -1.4999999999999998 2.5000000000000004 -1.0000000180025095e-35 2.5000000000000004
decision_type=2 2 2 2 2 2 2 2 2 2 2 2 2 2 2 2 2 2 2 2 2 2 2 2 2 2 2 2 2 2
left_child=-1 3 -3 -2 5 6 -5 -8 9 10 -9 12 -12 14 -14 -16 -17 19 -19 -18 21 22 23 -21 -24 26 -26 28 -28 -30
right_child=1 2 -4 4 -6 -7 7 8 -10 -11 11 -13 13 -15 15 16 17 18 -20 20 -22 -23 24 -25 25 -27 27 -29 29 -31
leaf_value=-0.1585363859678125 0.05036970784680242 0.13980329380654546 -0.026263931477752772 -0.040997418392011868 0.049663213380124652 0.033992582419355648 -0.050632295151080642 -0.054717858711224809 0.037542723986932994 0.03907198580727439 -0.046096844698252107 0.062532858016462065 -0.05204887172424523 0.033271768637033218 -0.053911133682900216 -0.04161489653301835 -0.045257716649079183 0.13637622407443922 0.0095543338603082135 -0.0098544767189931368 0.063264536156680734 0.051022884972599436 -0.051612525634116002 -0.15275844894669188 -0.046257971526335095 -0.046613069920506484 -0.058276808866578537 0.077079380329505023 0.0028136651954177548 0.047330624926738077
leaf_weight=14.556088060140608 136.40562941133976 85.717454254627228 124.85629260540009 261.20226164162159 133.0039588958025 247.13459527492523 166.57525111734867 148.62205283343792 250.96209996938705 208.21011735498905 180.13423855602741 78.550135090947151 177.63888645172119 235.60748451948166 142.61759504675865 210.12618742883205 151.93514041602612 40.651893123984337 77.084431052207947 123.94167900085449 82.716456770896912 127.46195136010647 104.65223030745983 39.825704865157604 124.17020520567894 120.89578193426132 69.396629929542542 54.045329377055168 3134.5693881362677 141.90728284418583
leaf_count=64 594 420 536 1134 571 1061 716 640 1100 1005 766 336 885 1005 646 898 647 211 322 528 348 562 443 210 534 523 296 230 13253 602
internal_value=5.11801e-06 0.000326503 0.0413364 -0.000912458 -0.0019361 -0.00296031 -0.00437541 -0.00283063 -0.0015092 -0.00320634 -0.00478771 -0.00341805 -0.00438828 -0.00293203 -0.00466447 -0.00289091 -0.00131025 0.000617495 0.0533433 -0.000834433 0.000802362 -0.000476238 -0.0021536 -0.0446065 -0.000299441 0.00117382 0.00281318 0.00460533 0.00343467 0.00474174
internal_weight=7195.17 7180.62 210.574 6970.04 6833.64 6700.64 6453.5 6192.3 6025.72 5774.76 5566.55 5417.93 5339.38 5159.24 4923.64 4746 4603.38 4393.25 117.736 4275.52 4123.58 4040.87 3913.4 163.767 3749.64 3644.98 3524.09 3399.92 3345.87 3276.48
internal_count=31086 31022 956 30066 29472 28901 27840 26706 25990 24890 23885 23245 22909 22143 21138 20253 19607 18709 533 18176 17529 17181 16619 738 15881 15438 14915 14381 14151 13855
is_linear=0
shrinkage=0.1


Tree=17
num_leaves=31
num_cat=0
split_feature=62 62 29 12 8 0 6 51 13 19 13 23 42 26 19 23 26 7 21 24 22 17 51 44 45 46 47 27 15 42
split_gain=35.3239 35.0592 34.0736 35.9209 33.7721 34.1434 35.3812 33.295 33.146 32.7972 33.2624 43.6539 33.4602 33.5583 30.6897 36.4809 29.3301 30.9534 29.176 28.9566 28.661 27.8584 30.5289 25.842 57.7883 30.9778 27.6526 27.8219 57.6605 27.636
threshold=1.0000000180025095e-35 -1.0000000180025095e-35 -2.4999999999999996 13.500000000000002 -2.4999999999999996 -1.4999999999999998 -5.4999999999999991 -7.4999999999999991 -7.4999999999999991 1.0000000180025095e-35 1.0000000180025095e-35 -8.4999999999999982 -5.4999999999999991 -2.4999999999999996 -2.4999999999999996 1.0000000180025095e-35 2.5000000000000004 1.0000000180025095e-35 -2.4999999999999996 3.5000000000000004 2.5000000000000004 -1.0000000180025095e-35 1.0000000180025095e-35 1.5000000000000002 1.5000000000000002 -2.4999999999999996 -3.4999999999999996 1.5000000000000002 1.5000000000000002 5.5000000000000009
decision_type=2 2 2 2 2 2 2 2 2 2 2 2 2 2 2 2 2 2 2 2 2 2 2 2 2 2 2 2 2 2
left_child=1 -1 -3 4 -4 -6 -7 -8 -9 10 11 19 -13 -14 -15 16 17 20 -5 -10 21 -16 23 25 -25 -23 -27 29 -29 -28
right_child=-2 2 3 18 5 6 7 8 9 -11 -12 12 13 14 15 -17 -18 -19 -20 -21 -22 22 -24 24 -26 26 27 28 -30 -31
leaf_value=-0.15387517798548417 0.15012514660411522 0.035218983444950384 -0.039113667298973857 -0.11263105055608368 -0.055501089228216741 -0.037283218789223568 -0.065581406528251493 -0.052981149986795185 -0.055229493751356065 0.039884603815981905 0.038385074668142907 -0.06505896789636656 -0.042798732236416587 -0.031509099429443854 -0.056645483345056938 0.050772501135775951 0.049468943079827563 0.041068247926249732 0.046720815157987435 0.13865718732021068 0.07379788056114496 -0.045948996944880797 0.061486107320812916 0.12821550855699262 -0.011054894242958128 -0.043847414310217638 -0.00097292452065499092 0.13735789161202994 0.0026065362062835133 0.077130596611838839
leaf_weight=14.838225096464155 15.640481963753698 264.47050778567791 245.13404986262321 12.149969249963759 114.11135932803154 248.52172735333443 73.704383507370949 107.49548178911209 182.71783246099949 232.20477479696274 234.69220501184464 74.11040398478508 157.67297515273094 231.2267424762249 85.31097474694252 173.76449608802795 138.09316225349903 200.38595372438431 211.45274490118027 8.0418874472379667 53.169685527682304 151.24846912920475 82.020976886153221 49.73321259021759 74.310706838965416 137.15756617486477 3388.1874454170465 45.958771869540215 102.7487428188324 45.91768091917038
leaf_count=65 68 1210 1051 52 488 1068 322 469 930 1023 1005 322 723 998 363 857 616 851 913 38 225 648 353 259 313 584 14405 237 434 196
internal_value=6.59118e-06 -0.000322225 -2.47376e-06 -0.0013601 -0.00268812 -0.00129131 -0.000306033 0.00121798 0.00204459 0.00305593 0.00153331 -7.375e-05 0.00165275 0.00261896 0.00406296 0.00580264 0.00408684 0.00266774 0.0380621 -0.0470558 0.000842471 -8.94041e-05 0.00109395 -0.000145878 0.0447831 -0.00158552 0.000218233 0.00190516 0.0442521 7.14036e-05
internal_weight=7156.19 7140.55 7125.71 6861.24 6637.64 6392.51 6278.4 6029.87 5956.17 5848.67 5616.47 5381.78 5191.02 5116.91 4959.23 4728.01 4554.24 4416.15 223.603 190.76 4215.76 4162.59 4077.28 3995.26 124.044 3871.22 3719.97 3582.81 148.708 3434.11
internal_count=31086 31018 30953 29743 28778 27727 27239 26171 25849 25380 24357 23352 22384 22062 21339 20341 19484 18868 965 968 18017 17792 17429 17076 572 16504 15856 15272 671 14601
is_linear=0
shrinkage=0.1


Tree=18
num_leaves=31
num_cat=0
split_feature=44 17 14 0 39 1 5 0 32 16 29 1 27 50 0 62 12 13 8 37 28 46 48 37 26 33 35 48 48 4
split_gain=33.3081 33.1663 33.1223 41.8621 36.4227 38.4709 38.9792 34.5167 34.0565 30.9592 31.3502 36.6548 28.0291 27.3224 26.3013 25.2424 24.8584 25.9388 25.111 24.9028 24.8871 27.057 28.6756 24.7841 24.646 23.2299 30.9511 25.7982 22.3813 21.9995
threshold=2.5000000000000004 1.0000000180025095e-35 -1.0000000180025095e-35 1.5000000000000002 1.0000000180025095e-35 1.0000000180025095e-35 3.5000000000000004 1.0000000180025095e-35 1.0000000180025095e-35 1.0000000180025095e-35 1.0000000180025095e-35 -1.0000000180025095e-35 -3.4999999999999996 -1.0000000180025095e-35 1.0000000180025095e-35 -1.0000000180025095e-35 -16.499999999999996 5.5000000000000009 2.5000000000000004 1.5000000000000002 2.5000000000000004 2.5000000000000004 -1.0000000180025095e-35 1.0000000180025095e-35 1.5000000000000002 1.0000000180025095e-35 -18.499999999999996 -21.499999999999996 -1.0000000180025095e-35 -1.0000000180025095e-35
decision_type=2 2 2 2 2 2 2 2 2 2 2 2 2 2 2 2 2 2 2 2 2 2 2 2 2 2 2 2 2 2
left_child=1 2 7 4 5 6 9 8 23 10 11 -4 -13 -14 15 -15 -17 18 19 20 21 24 -23 -1 25 -18 -27 -28 -20 -8
right_child=-2 -3 3 -5 -6 -7 29 -9 -10 -11 -12 12 13 14 -16 16 17 -19 28 -21 -22 22 -24 -25 -26 26 27 -29 -30 -31
leaf_value=0.054092489347223251 0.099185238617779115 0.048252588465064278 0.046937515478165603 0.056023512105611385 -0.039876006486846048 -0.042250835986520061 0.10228324286477473 -0.12733035471106169 -0.12667828558651203 -0.032721708982121782 -0.034111261212790671 -0.084863419795899772 0.05507351595383201 -0.17860686028993941 -0.04334783630445594 -0.045780599633618815 -0.0027105053478405777 0.041382073679063644 -0.10226404763088932 0.040433161093960036 0.060454133052826986 -0.1482919731216458 0.044181065958190366 -0.10173641198924431 0.032511680588041166 0.15124947043914899 0.15385328403687773 -0.054556862476365126 0.047629599171234084 -0.046503612874473015
leaf_weight=245.08742479979992 33.704317048192024 137.06072717905045 191.25880545377731 118.68154485523701 269.86554735898972 232.77606680989265 10.382699504494665 12.929424673318861 11.726525694131849 262.7884826362133 225.53788487613201 36.586829520761967 98.720214366912842 7.6323336958885184 124.98574961721897 100.66370768845081 3601.3664926961064 182.72853940725327 10.565157130360602 157.90596380829811 66.990564167499542 8.0860602855682355 181.16920465230942 10.650026828050612 188.8892478197813 8.1985308080911619 6.1498400419950476 173.67195521295071 174.30986256897449 231.84757770597935
leaf_count=1050 159 600 943 516 1207 1105 48 55 50 1121 1039 167 438 33 537 428 15459 783 44 678 290 34 788 46 832 34 26 743 746 1087
internal_value=1.02565e-05 -0.000461252 -0.00142164 -0.00283666 -0.00390267 -0.00235761 -0.000822809 0.0322479 0.039962 0.000816332 0.00240565 0.00395379 0.00235082 0.00297747 0.0019475 0.00311038 0.00339572 0.00443568 0.00296076 0.00144121 -1.28018e-05 -0.000984771 0.0359575 0.0476031 -0.0027422 -0.00449949 -0.038766 -0.0474293 0.0390635 -0.0401262
internal_weight=7122.92 7089.21 6952.15 6671.76 6553.08 6283.21 6050.44 280.393 267.464 5808.21 5545.42 5319.88 5128.62 5092.03 4993.31 4868.33 4860.7 4760.03 4577.3 4392.43 4234.52 4167.53 189.255 255.737 3978.28 3789.39 188.02 179.822 184.875 242.23
internal_count=31086 30927 30327 29126 28610 27403 26298 1201 1146 25163 24042 23003 22060 21893 21455 20918 20885 20457 19674 18884 18206 17916 822 1096 17094 16262 803 769 790 1135
is_linear=0
shrinkage=0.1


Tree=19
num_leaves=31
num_cat=0
split_feature=56 56 50 28 14 3 39 32 32 25 1 5 29 1 4 18 53 11 16 33 5 25 29 43 36 0 35 20 31 40
split_gain=31.412 30.8873 30.6666 31.5818 28.6763 31.0716 29.4937 29.3785 29.6403 27.5187 27.9131 27.6133 24.0109 28.6607 24.5221 24.8201 24.5515 22.7338 22.3501 23.983 25.6152 22.657 22.847 23.7952 22.1475 20.2749 19.2196 18.4834 23.6325 21.2615
threshold=1.0000000180025095e-35 -1.0000000180025095e-35 1.0000000180025095e-35 -2.4999999999999996 1.0000000180025095e-35 -12.499999999999998 1.0000000180025095e-35 1.0000000180025095e-35 1.5000000000000002 -8.4999999999999982 7.5000000000000009 -1.0000000180025095e-35 1.0000000180025095e-35 -1.0000000180025095e-35 -1.0000000180025095e-35 13.500000000000002 -1.0000000180025095e-35 -1.0000000180025095e-35 -4.4999999999999991 1.0000000180025095e-35 1.0000000180025095e-35 10.500000000000002 -2.4999999999999996 5.5000000000000009 1.5000000000000002 -1.0000000180025095e-35 -20.499999999999996 -1.0000000180025095e-35 23.500000000000004 6.5000000000000009
decision_type=2 2 2 2 2 2 2 2 2 2 2 2 2 2 2 2 2 2 2 2 2 2 2 2 2 2 2 2 2 2
left_child=1 -1 3 -3 5 -5 7 9 -9 -7 11 -11 13 -13 15 -15 -16 -6 24 20 21 22 -20 27 -18 -19 -21 28 29 -24
right_child=-2 2 -4 4 17 6 -8 8 -10 10 -12 12 -14 14 16 -17 18 25 19 26 -22 -23 23 -25 -26 -27 -28 -29 -30 -31
leaf_value=-0.148867613566535 0.1431434213784066 -0.058110088198431858 -0.046263855347437301 0.037475060650051371 0.092482968967272511 0.037926438182706884 -0.031498933312772676 -0.055522186296821256 0.016716489898283306 0.041604000181403145 -0.032702648596024259 0.04359760448836484 -0.030833274678211654 0.046119912321861023 0.050183343096075222 -0.11345609080643765 0.042507034278015943 0.089996308045476037 0.041304881704652768 0.11872643676140071 -0.036367558306054017 -0.034952690963269077 0.055250856187445518 -0.055312163700416986 -0.17647390632647134 -0.041886981306172077 -0.043346513414872133 0.0018348077011448233 -0.13997922681250183 -0.11592348500840642
leaf_weight=13.966047734022139 15.29934488236904 89.42865851521492 140.46959365904331 252.1477524638176 14.529131397604941 236.74139969795942 257.05555427074432 163.56534381210804 87.016354337334633 193.48798291385174 209.39178191125393 180.62038034200668 200.1435662060976 185.05300895124674 101.44532971084118 10.288883373141287 162.61308655142784 12.20864914357662 155.95284615457058 7.6381550878286353 179.24140548706055 156.90902207791805 137.35481613874435 70.502383276820183 4.7536266893148413 257.87951864302158 173.9308210760355 3413.5593310594559 7.1535688042640677 7.6610614359378806
leaf_count=64 67 386 616 1116 61 1026 1159 713 375 958 1006 909 931 817 433 43 699 52 732 32 853 666 587 300 20 1110 744 14549 30 32
internal_value=9.41571e-06 -0.000299768 -6.23528e-06 0.00093163 0.00170369 0.00305309 0.00167586 0.00308657 -0.0304368 0.00453629 0.00311397 0.00451623 0.00312413 0.00449583 0.00301647 0.0377149 0.00153613 -0.0293705 0.000433886 -0.000958417 0.000605997 0.00228415 0.0038249 0.00221744 0.0362874 -0.0359255 -0.0365285 0.00335492 0.0374551 0.0462079
internal_weight=7098.01 7082.71 7068.74 6928.27 6838.84 6554.23 6302.08 6045.02 250.582 5794.44 5557.7 5348.31 5154.82 4954.68 4774.06 195.342 4578.72 284.617 4477.27 4309.9 4128.33 3949.09 3792.18 3636.23 167.367 270.088 181.569 3565.73 152.169 145.016
internal_count=31086 31019 30955 30339 29953 28730 27614 26455 1088 25367 24341 23335 22377 21446 20537 860 19677 1223 19244 18525 17749 16896 16230 15498 719 1162 776 15198 649 619
is_linear=0
shrinkage=0.1


Tree=20
num_leaves=31
num_cat=0
split_feature=62 16 58 56 51 27 15 12 29 0 12 21 13 17 56 8 46 19 42 23 26 28 37 14 46 47 19 3 48 48
split_gain=29.0675 27.8281 33.2758 28.3426 28.9543 26.805 63.1744 30.0079 30.5404 26.3398 25.155 41.0495 28.8701 27.2671 26.9488 26.4401 24.7277 27.7442 31.1095 28.9678 27.5092 24.9676 24.8367 23.9265 30.2808 25.9695 28.0606 27.2923 24.5455 24.182
threshold=1.0000000180025095e-35 1.0000000180025095e-35 -2.4999999999999996 -1.0000000180025095e-35 4.5000000000000009 -2.4999999999999996 -2.4999999999999996 17.500000000000004 -3.4999999999999996 -1.4999999999999998 -10.499999999999998 1.0000000180025095e-35 5.5000000000000009 1.0000000180025095e-35 1.0000000180025095e-35 2.5000000000000004 -3.4999999999999996 3.5000000000000004 -5.4999999999999991 -7.4999999999999991 -2.4999999999999996 2.5000000000000004 1.5000000000000002 -1.0000000180025095e-35 2.5000000000000004 -3.4999999999999996 -2.4999999999999996 -15.499999999999998 1.0000000180025095e-35 -1.0000000180025095e-35
decision_type=2 2 2 2 2 2 2 2 2 2 2 2 2 2 2 2 2 2 2 2 2 2 2 2 2 2 2 2 2 2
left_child=1 2 -1 -4 5 6 -5 8 -7 -10 11 -11 13 14 15 16 -12 18 -18 -20 -21 22 23 -22 25 -25 28 -28 -27 -26
right_child=-2 -3 3 4 -6 7 -8 -9 9 10 12 -13 -14 -15 -16 -17 17 -19 19 20 21 -23 -24 24 29 26 27 -29 -30 -31
leaf_value=-0.052263987349902744 0.1378918591017779 -0.030048389451897063 -0.15108524449042338 -0.002704609987424961 0.049932913979650086 0.038206927758252185 -0.1429574033323387 0.057843422529473422 -0.049221881134794983 -0.039583150776647535 -0.044018218566513279 0.15530404839525042 0.040654349525519912 0.050820696470911579 0.16110982178584402 0.035097036685489032 -0.072728746404705155 0.03678829477303016 -0.042183614388170698 -0.043824805037865774 0.034971671502128703 0.065108198228628053 0.041910934312885097 -0.046237994002930494 -0.13161639222445307 -0.050262685950344881 0.041618674624174984 -0.0021874238453096742 0.12276623132261383 0.048517479041719838
leaf_weight=115.13096605241299 15.256408289074896 300.81549170613289 12.078183278441427 128.80211989581585 124.89527542889118 219.01428820192814 42.783430881798267 96.072678565979004 105.97767467796803 231.08010642230511 133.96378739178181 11.338187009096144 190.90105623006821 108.09319034218788 10.374182954430578 203.91659612953663 61.341894313693047 192.05526971817017 165.32799708843231 136.3561931848526 182.16716296970844 61.384648330509663 142.80372194945812 139.30926916003227 7.8245351463556281 164.25479753315449 148.33418238162994 3452.4518625363708 8.6292051374912244 156.73076483607292
leaf_count=503 68 1296 58 553 551 1027 254 418 458 1002 591 49 835 477 45 890 274 860 860 639 774 268 620 607 33 722 654 14976 37 687
internal_value=9.51953e-06 -0.000288684 0.0010369 0.00196132 0.0022403 0.00132408 -0.0376755 0.00238128 0.0015265 0.00019083 0.0010771 -0.030468 0.0024267 0.00109386 9.23892e-05 -0.00021944 -0.00161702 -0.000485265 -0.00196832 -0.0010575 0.000420529 0.00177207 0.000888965 -0.000486269 -0.00207038 -0.00383759 -0.00227233 -0.000382834 -0.0416262 0.0399522
internal_weight=7069.47 7054.21 6753.39 6638.26 6626.18 6501.29 171.586 6329.7 6233.63 6014.62 5908.64 242.418 5666.22 5475.32 5367.23 5356.85 5152.94 5018.97 4826.92 4765.57 4600.25 4463.89 4402.51 4259.7 4077.53 3912.98 3773.67 3600.79 172.884 164.555
internal_count=31086 31018 29722 29219 29161 28610 807 27803 27385 26358 25900 1051 24849 24014 23537 23492 22602 22011 21151 20877 20017 19378 19110 18490 17716 16996 16389 15630 759 720
is_linear=0
shrinkage=0.1


Tree=21
num_leaves=31
num_cat=0
split_feature=44 62 39 29 44 45 46 17 16 58 6 8 13 7 12 14 1 18 5 32 32 32 0 45 21 43 12 9 10 31
split_gain=27.3243 28.3802 27.0831 31.0255 25.8041 157.676 29.1928 29.1767 25.6072 32.3076 26.7449 30.1941 27.3185 31.6295 25.7249 23.6685 30.2004 26.8836 23.2075 23.9466 37.9371 22.1627 22.0777 21.7592 21.6187 21.5975 20.9013 19.9088 19.5644 18.665
threshold=2.5000000000000004 -1.0000000180025095e-35 -1.0000000180025095e-35 1.0000000180025095e-35 -1.4999999999999998 -1.4999999999999998 4.5000000000000009 1.0000000180025095e-35 -3.4999999999999996 2.5000000000000004 -5.4999999999999991 2.5000000000000004 -1.0000000180025095e-35 1.0000000180025095e-35 -1.0000000180025095e-35 -1.0000000180025095e-35 7.5000000000000009 12.500000000000002 1.0000000180025095e-35 -1.4999999999999998 -1.0000000180025095e-35 1.0000000180025095e-35 1.0000000180025095e-35 2.5000000000000004 -1.0000000180025095e-35 -4.4999999999999991 -16.499999999999996 8.5000000000000018 3.5000000000000004 -22.499999999999996
decision_type=2 2 2 2 2 2 2 2 2 2 2 2 2 2 2 2 2 2 2 2 2 2 2 2 2 2 2 2 2 2
left_child=1 -1 27 4 5 -4 7 8 28 10 -10 12 -12 15 -13 21 17 18 19 -17 -21 22 -14 -2 -5 -22 -27 -3 -6 -28
right_child=23 2 3 24 6 -7 -8 -9 9 -11 11 14 13 -15 -16 16 -18 -19 -20 20 25 -23 -24 -25 -26 26 29 -29 -30 -31
leaf_value=-0.14299863564881471 0.1615615144182343 0.035523872822929438 0.031273733138844392 0.081544034018939518 0.024606784327944331 -0.15328762418339292 0.064896880708998489 0.04949421953596074 -0.037139658650636287 0.056151932591194248 -0.037013137414674283 -0.13419308498837312 0.044674041899359973 0.036856381137361109 0.044000060636893309 -0.065084834683658138 -0.046531218844586303 -0.039022751441295141 -0.037064472740192388 0.057947700969119054 0.049472477762265092 -0.11627694116434679 -0.11281948195378738 -0.0021387348799401743 -0.043783060129367585 -0.050522862579184827 -0.033259666832444419 -0.10260242130587832 0.15627814145774996 0.00089713788692524343
leaf_weight=13.93331356346607 18.754108816385269 271.32117387652397 128.14969176054001 14.636592283844946 234.28028275072575 72.465541295707226 70.784694403409958 118.31440277397633 219.80579668283463 94.06388545781374 226.18866917490959 8.4578383266925794 188.33799743652344 206.31538923084736 192.35081915557384 55.565105631947517 165.54981316626072 198.53542199730873 174.93092048168182 113.7540864571929 84.23250138759613 9.8748877346515638 9.3422927036881429 14.319560110568998 230.82388681173325 85.783631861209869 167.35583379119635 10.852378636598585 11.855588868260382 3631.4696950912476
leaf_count=64 96 1236 550 68 1024 363 315 523 949 412 1001 36 811 894 841 239 813 873 846 494 365 43 40 63 1092 369 722 49 50 15845
internal_value=6.01969e-06 -0.000421855 -0.000137873 -0.00141353 -8.91696e-05 -0.0353929 0.00104092 0.00031146 -0.000645924 -0.00197939 -0.00293237 -0.00156975 -0.00300728 -0.00149645 0.0364948 -0.00311635 -0.00458271 -0.00304345 -0.00138729 0.000120882 0.00100835 0.0299275 0.037231 0.0906859 -0.0363099 -0.000623636 -0.0017099 0.0302115 0.030949 -0.000607627
internal_weight=7042.41 7009.33 6995.4 6713.23 6467.76 200.615 6267.15 6196.36 6078.05 5831.91 5737.85 5518.04 5317.24 5091.05 200.809 4884.73 4677.18 4511.63 4313.09 4138.16 4082.6 207.555 197.68 33.0737 245.46 3968.84 3884.61 282.174 246.136 3798.83
internal_count=31086 30927 30863 29578 28418 913 27505 27190 26667 25593 25181 24232 23355 22354 877 21460 20566 19753 18880 18034 17795 894 851 159 1160 17301 16936 1285 1074 16567
is_linear=0
shrinkage=0.1


Tree=22
num_leaves=31
num_cat=0
split_feature=3 50 0 0 16 37 58 25 51 44 29 34 12 8 19 18 46 19 27 15 23 24 13 48 32 21 48 45 31 19
split_gain=25.2957 28.0234 26.1776 27.1973 25.1413 29.4669 28.6477 27.9899 27.1786 24.4319 24.9582 24.2414 25.7204 25.1572 25.6035 24.6923 24.5759 24.8533 27.8002 35.8027 24.5364 27.3051 24.2931 23.9993 23.5632 22.5674 20.7489 20.5617 19.6236 19.2727
threshold=20.500000000000004 4.5000000000000009 1.5000000000000002 1.0000000180025095e-35 1.0000000180025095e-35 -1.4999999999999998 -3.4999999999999996 -8.4999999999999982 9.5000000000000018 -2.4999999999999996 -4.4999999999999991 -2.4999999999999996 13.500000000000002 -2.4999999999999996 -3.4999999999999996 -13.499999999999998 -2.4999999999999996 4.5000000000000009 -2.4999999999999996 -2.4999999999999996 1.0000000180025095e-35 -1.0000000180025095e-35 1.0000000180025095e-35 18.500000000000004 1.0000000180025095e-35 -1.0000000180025095e-35 18.500000000000004 -2.4999999999999996 -35.499999999999993 -1.0000000180025095e-35
decision_type=2 2 2 2 2 2 2 2 2 2 2 2 2 2 2 2 2 2 2 2 2 2 2 2 2 2 2 2 2 2
left_child=1 2 3 4 5 23 -7 24 9 27 -11 -12 13 -13 -15 -16 -17 18 19 -18 22 -22 -20 -1 26 -14 -8 -9 -4 -6
right_child=-2 -3 28 -5 29 6 7 8 -10 10 11 12 25 14 15 16 17 -19 20 -21 21 -23 -24 -25 -26 -27 -28 -29 -30 -31
leaf_value=-0.042811517045356906 -0.032264618726808983 -0.048058137640381839 -0.14096418540652922 -0.040838037220610773 -0.14413851160055119 -0.07501538033625467 0.052880103590900895 0.0031633533369239061 0.12731948761794473 0.044000518708779073 -0.037863028851023772 -0.03299730786245867 -0.10551608489841757 -0.032289067079384975 0.040268142479770473 -0.032069856697662512 -0.011795607312518989 0.04962970354537987 0.0024564620280996055 -0.13950717893430409 -0.12479828886087647 0.056683118403531345 0.04200268227888513 0.12040444861851052 -0.10782413079535169 0.050517137184664933 -0.086564776154552631 -0.17640860127537317 0.057052839756402698 -0.021153038821057658
leaf_weight=184.87998402118683 234.85061933100224 113.9352313503623 5.2341984808444968 150.98296567797661 13.368461176753042 44.726073399186134 213.73463197052479 11.807249188423159 17.789429157972336 151.50848975777626 142.4050884693861 190.49125099182129 9.8229014724493009 186.68249806761742 195.47237947583199 181.64540825784206 86.973161727190018 123.83255541324615 3824.9072050601244 29.361550748348236 8.822128698229788 137.57399800419807 161.91183783113956 9.4704293310642225 10.431132495403288 164.47579017281532 11.231366083025931 13.863393470644949 114.12159110605717 271.87860399484634
leaf_count=819 1050 506 22 666 59 195 940 51 80 727 626 828 42 831 864 800 373 562 16795 189 42 699 715 42 45 725 48 67 504 1174
internal_value=7.5786e-07 0.00111784 0.00195793 0.00111222 0.00210201 0.00345592 0.00471387 0.00532087 0.00391063 0.0035201 0.00396662 0.00285254 0.00394611 0.00266199 0.00403783 0.00546538 0.00397187 0.00546884 0.00418199 -0.0440285 0.00553893 0.0457467 0.0040625 -0.0348582 0.0391056 0.0417236 0.0459184 -0.0938142 0.0483691 -0.0269169
internal_weight=7018.19 6783.34 6669.41 6550.05 6399.07 6113.82 5919.47 5874.74 5639.35 5621.56 5595.89 5444.38 5301.97 5127.67 4937.18 4750.5 4555.03 4373.38 4249.55 116.335 4133.22 146.396 3986.82 194.35 235.397 174.299 224.966 25.6706 119.356 285.247
internal_count=31086 30036 29530 29004 28338 27105 26244 26049 25016 24936 24818 24091 23465 22698 21870 21039 20175 19375 18813 562 18251 741 17510 861 1033 767 988 118 526 1233
is_linear=0
shrinkage=0.1


Tree=23
num_leaves=31
num_cat=0
split_feature=62 27 15 51 53 42 44 45 58 31 28 50 4 3 8 16 24 18 51 13 26 0 42 7 17 46 12 21 19 48
split_gain=24.4436 24.3228 58.2975 24.753 26.459 25.5099 25.7329 92.787 27.0541 26.7457 29.641 25.0092 24.7634 24.6616 27.4693 23.3971 23.3483 22.9348 22.3026 22.5226 22.5213 21.0164 22.6699 24.9102 22.4998 22.4253 26.1941 33.0128 24.3557 22.9584
threshold=1.0000000180025095e-35 2.5000000000000004 2.5000000000000004 -1.0000000180025095e-35 1.0000000180025095e-35 5.5000000000000009 1.5000000000000002 1.5000000000000002 -2.4999999999999996 -22.499999999999996 2.5000000000000004 1.0000000180025095e-35 1.0000000180025095e-35 -12.499999999999998 2.5000000000000004 -3.4999999999999996 2.5000000000000004 -13.499999999999998 9.5000000000000018 -1.0000000180025095e-35 1.5000000000000002 -1.4999999999999998 -3.4999999999999996 1.0000000180025095e-35 -4.4999999999999991 -2.4999999999999996 -10.499999999999998 1.0000000180025095e-35 1.0000000180025095e-35 -1.0000000180025095e-35
decision_type=2 2 2 2 2 2 2 2 2 2 2 2 2 2 2 2 2 2 2 2 2 2 2 2 2 2 2 2 2 2
left_child=1 3 -3 -1 5 6 8 -8 -5 16 11 12 13 -11 15 -15 -10 -14 19 -17 21 -21 -23 24 -24 -26 27 -27 -28 -30
right_child=-2 2 -4 4 -6 -7 7 -9 9 10 -12 -13 17 14 -16 18 -18 -19 -20 20 -22 22 23 -25 25 26 28 -29 29 -31
leaf_value=-0.044847125925726518 0.12831086404901498 0.13072279279406832 0.0019546233083009728 -0.051581155132878115 -0.045788029208509134 0.053573531694483638 0.12642437640807414 -0.019169022572721295 -0.038853115089438749 0.035966963129201612 0.05985405945724144 -0.045711273011259983 0.11525255708625895 0.03231286574253165 0.037630326180146056 -0.034616064148754559 0.10648848032467939 -0.03823091311399876 0.11838197827672355 -0.053018421548662535 0.032409730696670511 -0.038357646282641433 -0.059568304408568119 0.035987358377523142 -0.038047665439054357 -0.048185193999958818 0.00091224175914660251 0.16164205385229469 -0.13072587749202583 0.049332887824197438
leaf_weight=127.69682897627354 14.815633639693258 47.742024801671505 133.39442917704582 105.40329413115978 126.0149237215519 89.238268971443176 70.835727319121361 114.5723719894886 242.8036213517189 209.3643012791872 84.010249331593513 117.13769647479057 10.192284986376761 209.01946182549 196.78279413282871 205.70550150424242 11.580021321773527 217.38308525085449 15.378318488597868 80.108981013298035 195.5803994089365 159.33708068728447 65.812082305550575 184.61820338666439 153.82738636434078 156.60529920458794 3486.4206247478724 7.8753036111593238 7.4281914979219428 151.64198838174343
leaf_count=567 68 276 579 459 551 395 397 502 1062 941 373 523 45 919 867 920 50 965 70 350 885 708 290 808 681 682 15391 34 33 695
internal_value=4.318e-07 -0.000271781 0.035894 -0.00123482 -0.000400447 0.000472939 -0.000260656 0.0364554 -0.00134568 -0.000487304 0.000878314 2.85058e-05 0.000966328 0.00230731 0.000971653 -0.000448565 -0.0322369 -0.0313569 -0.00185458 -0.00223544 -0.000802761 -0.00226127 -0.00133157 6.83629e-05 -0.00157728 -0.000614438 0.000896926 -0.0381387 0.00265817 0.0409246
internal_weight=6998.33 6983.51 181.136 6802.37 6674.68 6548.66 6459.42 185.408 6274.02 6168.61 5914.23 5830.22 5713.08 5485.51 5276.14 5079.36 254.384 227.575 4870.34 4854.96 4649.26 4453.68 4373.57 4214.23 4029.61 3963.8 3809.97 164.481 3645.49 159.07
internal_count=31086 31018 855 30163 29596 29045 28650 899 27751 27292 26180 25807 25284 24274 23333 22466 1112 1010 21547 21477 20557 19672 19322 18614 17806 17516 16835 716 16119 728
is_linear=0
shrinkage=0.1


Tree=24
num_leaves=31
num_cat=0
split_feature=50 28 62 27 15 44 0 13 14 26 46 17 34 27 15 3 37 58 19 8 6 51 23 42 22 11 19 13 42 23
split_gain=22.9427 22.9771 22.2651 22.4757 45.3413 22.2693 22.3494 24.1172 23.2685 23.2854 23.046 23.0188 22.085 24.1503 38.7731 23.3574 23.9416 22.6957 23.2319 23.1066 23.797 23.8703 22.6626 21.6821 21.3707 35.6981 23.3009 24.074 25.2759 22.531
threshold=-1.0000000180025095e-35 -2.4999999999999996 -1.0000000180025095e-35 2.5000000000000004 2.5000000000000004 2.5000000000000004 1.5000000000000002 -7.4999999999999991 -1.0000000180025095e-35 2.5000000000000004 4.5000000000000009 1.0000000180025095e-35 -2.4999999999999996 -2.4999999999999996 -2.4999999999999996 20.500000000000004 -1.4999999999999998 2.5000000000000004 -3.4999999999999996 -2.4999999999999996 -5.4999999999999991 -1.0000000180025095e-35 1.0000000180025095e-35 3.5000000000000004 1.5000000000000002 -1.4999999999999998 3.5000000000000004 1.0000000180025095e-35 -5.4999999999999991 -7.4999999999999991
decision_type=2 2 2 2 2 2 2 2 2 2 2 2 2 2 2 2 2 2 2 2 2 2 2 2 2 2 2 2 2 2
left_child=-1 -2 -3 5 -5 6 7 -4 -9 10 11 12 -10 14 -14 16 -15 18 -18 -20 -21 -22 23 24 26 -26 27 28 -23 -30
right_child=1 2 3 4 -6 -7 -8 8 9 -11 -12 -13 13 15 -16 -17 17 -19 19 20 21 22 -24 -25 25 -27 -28 -29 29 -31
leaf_value=0.040488004700865741 -0.050657044840285118 -0.13322646175636607 -0.048536771664727245 0.12479412408612811 0.0058930704414753114 0.086785270572875411 0.041981150441850107 0.028119577979578338 -0.043181968743076102 0.033376216526383541 0.055988107491125871 0.040650201211577218 -0.015438304765757825 -0.038568970438156415 -0.13559430821082824 -0.038560412904220187 -0.03606089398538042 0.053269614729748109 -0.03400429445325686 -0.033578920868470516 -0.049265716865361631 -0.07420310651244999 0.042139236356771366 0.040430184034658784 -0.18601883724215026 0.045587096395530602 0.037316400710217607 0.035795635592061004 -0.043870841029622069 -0.0010625347007392559
leaf_weight=137.25753016769886 91.219009727239609 12.545457623898981 109.41132999956608 42.994151256978512 126.24528233706951 28.895483531057835 117.71798495948315 259.85219040513039 148.00727588683367 176.22758120298386 64.376436591148376 112.3476390838623 114.0453108549118 170.65433695912361 35.128021501004696 178.06857055425644 185.33215010166168 77.339083164930344 191.57817274332047 186.17696478962898 85.943460255861282 50.045651257038116 150.05379888415337 146.08095510303974 6.9406022280454627 161.71100553870201 157.84535047411919 161.87943503260612 127.61585161089897 3362.0518501847982
leaf_count=624 400 60 493 265 548 148 522 1135 653 811 289 503 490 765 238 806 833 343 841 806 384 227 774 644 30 702 730 720 684 14618
internal_value=8.1697e-06 -0.000804333 -0.000130339 0.000117599 0.0360991 -0.000809924 -0.00119715 -0.00198904 -0.00118184 -0.00244047 -0.00351516 -0.00417461 -0.00505865 -0.0040417 -0.0437332 -0.0029451 -0.00173045 -0.000485717 -0.00132167 2.30287e-05 0.00144131 0.0029197 0.00395688 0.00258429 0.00121179 0.0360557 -0.000310837 -0.00191536 -0.00363997 -0.00262802
internal_weight=6975.59 6838.33 6747.11 6734.57 169.239 6565.33 6536.43 6418.71 6309.3 6049.45 5873.22 5808.85 5696.5 5548.49 149.173 5399.32 5221.25 5050.59 4973.26 4787.92 4596.34 4410.17 4324.22 4174.17 4028.09 168.652 3859.44 3701.59 3539.71 3489.67
internal_count=31086 30462 30062 30002 813 29189 29041 28519 28026 26891 26080 25791 25288 24635 728 23907 23101 22336 21993 21160 20319 19513 19129 18355 17711 732 16979 16249 15529 15302
is_linear=0
shrinkage=0.1


Tree=25
num_leaves=31
num_cat=0
split_feature=56 56 62 62 32 32 58 6 51 39 7 50 9 11 0 22 46 12 38 19 48 5 39 9 44 45 1 14 31 38
split_gain=22.8008 22.7001 21.4325 19.8838 19.8528 36.7552 24.0151 22.6432 21.2286 20.9622 23.5836 22.4409 20.361 19.7336 18.8961 19.7774 20.3441 20.7668 19.8579 19.6501 21.7885 21.3513 19.6023 23.422 21.0187 85.58 19.4971 18.7379 19.8747 20.2707
threshold=-1.0000000180025095e-35 1.0000000180025095e-35 -1.0000000180025095e-35 1.0000000180025095e-35 1.0000000180025095e-35 1.5000000000000002 -3.4999999999999996 -5.4999999999999991 4.5000000000000009 1.0000000180025095e-35 -1.0000000180025095e-35 -1.0000000180025095e-35 -1.0000000180025095e-35 1.5000000000000002 1.5000000000000002 -2.4999999999999996 -3.4999999999999996 -16.499999999999996 3.5000000000000004 4.5000000000000009 -1.0000000180025095e-35 1.0000000180025095e-35 -1.0000000180025095e-35 9.5000000000000018 -1.4999999999999998 -1.4999999999999998 1.0000000180025095e-35 -1.0000000180025095e-35 -36.499999999999993 -1.0000000180025095e-35
decision_type=2 2 2 2 2 2 2 2 2 2 2 2 2 2 2 2 2 2 2 2 2 2 2 2 2 2 2 2 2 2
left_child=-1 2 -2 4 6 -6 -4 -8 9 10 13 -12 -11 -9 15 -13 -17 -18 19 21 -21 22 -19 24 25 -24 -26 -16 -29 -30
right_child=1 -3 3 -5 5 -7 7 8 -10 12 11 14 -14 -15 27 16 17 18 -20 20 -22 -23 23 -25 26 -27 -28 28 29 -31
leaf_value=-0.13376393631808345 -0.130673229971836 0.12356423027256135 -0.071181085496345886 0.11885196122981503 -0.053229447345691627 0.02381699877603774 -0.027974148110152055 -0.033660108445346996 0.044585512708613412 0.10318257650258195 0.049120584624485902 -0.052183778523022389 -0.032261537729869963 0.093829526228785931 -0.1477166212094623 -0.03243115507222552 -0.038503492810431431 0.035294924813669699 0.072214876801538069 -0.14972637097406558 0.050981407396134153 -0.028505459104795423 0.019363407823033855 0.043631627516485388 0.0050657184426047743 -0.1468646784825135 -0.030691477201924968 -0.14141809362665325 -0.10650728657960713 0.081847418401224767
leaf_weight=12.718381673097609 12.53139755874872 14.896470338106154 45.685138627886772 14.100560650229452 178.10894380509853 94.913023740053177 249.51307833939791 234.84009796380997 118.94780952483416 11.627734050154684 110.30291872471571 64.639279864728451 244.03262658417225 12.802945688366888 4.6752837300300589 153.47840549051762 109.94409447163343 206.40879745781422 44.125405855476856 5.6457402259111396 128.86940057575703 196.23213191330433 93.60626894235611 142.96940162032843 4145.1492929831147 46.286431346088648 158.31447429209948 4.7594106644392005 6.1504619866609564 80.457106359302998
leaf_count=64 61 67 201 67 795 416 1095 1040 539 52 509 285 1126 55 20 685 485 959 195 25 604 958 404 634 18293 251 793 20 27 361
internal_value=6.90749e-06 0.00025227 -1.32135e-05 0.000223858 -1.88302e-05 -0.0264451 0.00107113 0.00157325 0.002739 0.00193685 0.00314167 0.00445375 -0.0261014 -0.027069 0.00357264 0.00280416 0.00345862 0.00450234 0.00541732 0.00484203 0.0425575 0.00382513 0.00514886 0.00379213 0.00251025 -0.0356366 0.00375029 0.0475463 0.057538 0.0684714
internal_weight=6946.73 6934.01 6919.12 6906.59 6892.49 273.022 6619.46 6573.78 6324.27 6205.32 5949.66 5702.01 255.66 247.643 5591.71 5495.67 5431.03 5277.55 5167.61 5123.48 134.515 4988.97 4792.73 4586.33 4443.36 139.893 4303.46 96.0423 91.367 86.6076
internal_count=31086 31022 30955 30894 30827 1211 29616 29415 28320 27781 26603 25508 1178 1095 24999 24571 24286 23601 23116 22921 629 22292 21334 20375 19741 655 19086 428 408 388
is_linear=0
shrinkage=0.1


Tree=26
num_leaves=31
num_cat=0
split_feature=56 14 43 0 43 37 16 5 51 69 53 18 32 32 58 6 8 39 45 11 24 26 37 14 28 11 19 9 51 46
split_gain=19.4574 19.6671 22.7727 23.4968 20.6558 21.297 21.9995 23.0241 23.7126 21.0705 19.7419 19.0699 19.4122 49.106 23.2031 19.993 23.9525 22.2554 20.7978 19.2122 20.3064 21.3562 22.6057 23.212 18.6228 18.4843 18.0801 17.5031 17.272 17.6746
threshold=-1.0000000180025095e-35 1.0000000180025095e-35 -4.4999999999999991 -1.4999999999999998 5.5000000000000009 -1.4999999999999998 1.0000000180025095e-35 -1.0000000180025095e-35 4.5000000000000009 1.0000000180025095e-35 -1.0000000180025095e-35 21.500000000000004 -1.4999999999999998 -1.0000000180025095e-35 2.5000000000000004 5.5000000000000009 -2.4999999999999996 -1.0000000180025095e-35 1.0000000180025095e-35 -2.4999999999999996 4.5000000000000009 -1.4999999999999998 1.5000000000000002 -1.0000000180025095e-35 -2.4999999999999996 -1.0000000180025095e-35 1.0000000180025095e-35 6.5000000000000009 -7.4999999999999991 2.5000000000000004
decision_type=2 2 2 2 2 2 2 2 2 2 2 2 2 2 2 2 2 2 2 2 2 2 2 2 2 2 2 2 2 2
left_child=-1 2 -2 -4 5 -5 7 -7 10 -8 -9 12 -12 -14 15 16 18 27 -15 -19 21 26 24 -24 -23 -3 -21 -18 -26 -30
right_child=1 25 3 4 -6 6 9 8 -10 -11 11 -13 13 14 -16 -17 17 19 -20 20 -22 22 23 -25 28 -27 -28 -29 29 -31
leaf_value=-0.12652991430770824 0.043588058323697124 0.0847076946615751 -0.044515148988846877 -0.029518769551401328 -0.039503187720711791 0.036977970404517571 -0.02980464441902525 0.043691330914895528 0.04922183873748523 0.13311371884905548 -0.049592140187727445 -0.046948242830274683 0.059404089140614041 -0.044412192425590025 0.055611172558094529 0.031012917793095632 0.040957004255029246 -0.043337757842190482 0.097897535944844419 -0.041952400969721693 0.0667730712030324 -0.05829189719057392 -0.13576159613679162 0.050288647280111703 -0.058998125705601458 -0.031246103126695242 0.096831204555704667 -0.1012650900143921 -0.00028761701541428204 0.035329684026172002
leaf_weight=12.131561398506163 125.1481462046504 14.477859795093535 113.81423107534647 205.81189069151878 121.55966544896364 210.18223770707846 259.71207217872143 113.06281404197216 110.05202851444483 8.1887404471635801 71.385444663465023 80.139997348189354 149.45306601375341 175.27655406296253 77.295845441520214 204.5565275028348 179.89776849746704 104.29379695653915 10.908610783517359 170.23784478008747 45.200024127960205 55.000466614961624 7.0690905749797812 130.4989825412631 48.493045553565025 272.61977834254503 9.9347601830959302 9.0905303806066495 3685.4321201778948 144.79867196828127
leaf_count=64 563 61 502 924 543 1071 1134 501 503 36 314 364 667 779 346 910 848 463 50 785 198 243 31 581 220 1199 42 41 16448 655
internal_value=3.10615e-06 0.000225139 0.00133531 0.000521965 0.00132444 0.0021165 0.00319088 0.00448665 0.00326325 -0.0248248 0.00233894 0.00146649 0.0022015 0.0029115 0.00124226 0.000398508 -0.000912674 0.000513609 -0.0360742 -0.000929362 0.000100026 -0.000608818 0.000882158 0.0407282 -0.000511317 -0.0253987 -0.0342998 0.034116 0.000308014 0.00105887
internal_weight=6925.72 6913.59 6626.49 6501.35 6387.53 6265.97 6060.16 5792.26 5582.08 267.901 5472.03 5358.96 5278.82 5207.44 5057.98 4980.69 4776.13 4589.95 186.185 4400.96 4296.67 4251.46 4071.29 137.568 3933.72 287.098 180.173 188.988 3878.72 3830.23
internal_count=31086 31022 29762 29199 28697 28154 27230 26060 24989 1170 24486 23985 23621 23307 22640 22294 21384 20555 829 19666 19203 19005 18178 612 17566 1260 827 889 17323 17103
is_linear=0
shrinkage=0.1


Tree=27
num_leaves=31
num_cat=0
split_feature=56 17 27 15 13 44 45 12 21 42 31 58 4 21 48 35 25 18 6 11 8 48 32 14 3 46 17 24 51 16
split_gain=18.9302 18.7853 19.0081 44.4499 20.4502 18.4574 85.6718 20.6906 23.1535 22.0445 20.6551 25.5042 24.3409 24.9594 37.6785 30.6488 22.9192 21.9884 20.6639 24.8315 22.6378 21.0747 20.9875 22.6617 23.4188 28.0043 26.2307 20.3353 19.4535 19.8182
threshold=1.0000000180025095e-35 -1.0000000180025095e-35 2.5000000000000004 2.5000000000000004 -7.4999999999999991 1.5000000000000002 1.5000000000000002 -10.499999999999998 1.0000000180025095e-35 5.5000000000000009 -22.499999999999996 -1.4999999999999998 1.0000000180025095e-35 1.0000000180025095e-35 -1.0000000180025095e-35 -1.0000000180025095e-35 -8.4999999999999982 -12.499999999999998 -7.4999999999999991 3.5000000000000004 2.5000000000000004 -1.0000000180025095e-35 1.0000000180025095e-35 -1.0000000180025095e-35 20.500000000000004 -3.4999999999999996 1.0000000180025095e-35 3.5000000000000004 9.5000000000000018 -3.4999999999999996
decision_type=2 2 2 2 2 2 2 2 2 2 2 2 2 2 2 2 2 2 2 2 2 2 2 2 2 2 2 2 2 2
left_child=1 -1 4 -4 -3 7 -7 8 -6 10 27 -12 13 18 -15 -16 -17 -14 -13 20 22 -22 23 -20 25 -25 28 -9 29 -27
right_child=-2 2 3 -5 5 6 -8 9 -10 -11 11 12 17 14 15 16 -18 -19 19 -21 21 -23 -24 24 -26 26 -28 -29 -30 -31
leaf_value=-0.037652938231923859 0.11345613380297284 -0.042872722555207056 0.12358622406592119 0.0044949132639867211 -0.035664050686355524 0.12162117523237706 -0.021026328159930854 -0.033777149090978592 0.11531033629311156 0.05271614298084263 -0.044116551547451546 -0.033626181272463154 0.11220321062042055 0.13700507253661656 0.14982601191302602 0.099765129892671292 -0.054115168479441381 -0.037627270103462021 0.039017357184398443 0.12216644957660883 -0.09653397895612123 0.047899073800424678 -0.027071056352160366 -0.043046971434946069 -0.033383054275331669 0.038684570741175643 0.061964784026626224 0.12026380041349133 0.12736516980129242 0.0038544062669592528
